{"word_weight_true_fake": {"looking": -3.881521383292164, "elegant": -1.7278057200678552, "hotel": -2.94869200321419, "downtown": 3.8099461325555786, "chicago": -11.231391922859439, "stay": -0.3524597482217791, "ambassador": -2.9794648968780693, "east": -3.8290229457456624, "comfortable": 5.427665843278474, "beautiful": -4.169369959227404, "large": 7.664117139370852, "rooms": 0.5562334454331717, "like": -5.724055831671676, "home": 0.6661706496830451, "away": -1.3533525787922978, "perfect": -2.312490699681557, "place": -4.760542840986876, "business": -1.4749263414779321, "person": -4.248712835927503, "small": 7.971846076009642, "pet": -5.608047379542276, "bring": 3.002351120502366, "would": -2.7363471325258177, "give": -5.688164042736823, "four": -0.9614297193535907, "stars": -1.8058391119311925, "definitely": -4.720186899199429, "atmosphere": -7.594803726079581, "talbott": -5.761554715633463, "welcoming": -1.9296151900241063, "first": 5.527186690872296, "walk": 8.585756376298324, "employees": -2.249456861402934, "friendly": -0.2784738549447933, "greet": -0.9735424540936282, "arrive": -3.9252105592095474, "seems": -1.7010803249903277, "luxurious": -9.558495282878486, "even": 3.971369899705366, "lobby": 9.97824469509836, "right": -3.249933037707211, "excited": -2.982619564893902, "stayed": 3.3931728222374336, "double": -2.832147852742478, "queen": -8.485670069343174, "room": -4.003601083301092, "friend": 5.023124311776435, "spacious": -3.752537126871224, "enough": 3.5111157406029583, "beds": 0.7925061754114461, "try": 1.9987202761822565, "service": 0.7336388797952442, "fitness": -4.860450581827922, "club": 0.7921490431832385, "close": -1.8196184637361983, "spa": -10.737388768191423, "convenient": 0.7515252522246362, "also": -0.9833040683312997, "love": 3.153209725901015, "individual": 2.853813874587066, "climate": -0.9735424540936282, "controls": 0.9352995446564091, "neat": -4.6315883455849525, "handy": -0.03949287223594536, "ihome": -2.960983304068331, "usually": -3.7411386565876015, "stuck": -5.6812892473438295, "using": 0.8623552870450284, "regular": 4.604386774203149, "alarm": -0.9735424540936282, "clock": 2.707478944079045, "radio": -0.016130472307371805, "hotels": 3.4143329067587276, "likely": -0.00041665426624207615, "another": -3.0084223683818934, "time": -1.0919317877444124, "wonderful": 0.22255290021130322, "experience": -13.364632004999851, "searching": 0.9798220291062766, "cool": 11.828874140650576, "non": 1.8927710484806999, "chain": 1.5181393410910389, "weekend": 0.3223118359572632, "getaway": -4.7747686080771405, "boyfriend": 0.9016993541858873, "thought": 0.8823546918246481, "found": -5.313056159042886, "winner": 0.9961013065087349, "affinia": -8.755275140620816, "soo": 0.9961013065087349, "disappointed": 0.772268682479688, "spite": 1.995803696318562, "fact": 7.641647570012797, "reservation": 7.905687330734204, "two": 0.44555221570786585, "adults": 1.970983006458141, "arrived": -9.568494985268295, "find": -3.2112437129847327, "bed": 11.545519478586947, "floored": 0.9961013065087349, "delayed": -1.9633939466087318, "flight": 4.730633016874497, "hour": -1.5719770244933187, "cab": 8.575340019642272, "ride": 2.9487217642332073, "tired": -5.929317579833934, "make": -10.37650665158775, "fuss": 0.9961013065087349, "hungry": -3.884824856403083, "delays": 2.907205142704086, "planned": -1.2320169042588018, "attending": 4.896550697895896, "event": 1.0483021338650635, "night": 0.1735365018898247, "called": 17.039284545102824, "hoping": -1.9417576857831613, "keep": 1.9304484985565906, "simple": 1.9372935329305676, "told": 5.668611053242463, "call": 5.972738906580162, "back": -1.2072854974554328, "take": -1.7775066218267312, "order": 1.4314752537126871, "nothing": -2.8411952025237346, "happened": 4.525936728073569, "want": 2.896759025029017, "late": 6.212136543555252, "ended": -7.76697122109461, "going": -1.288771167524776, "restaurant": 1.2248444986756346, "downstairs": -2.297997083420136, "special": 2.7930418737537575, "entree": 0.9961013065087349, "dessert": -0.924258206600994, "nab": 0.9961013065087349, "still": 1.4655813815065026, "came": -5.9397339364899855, "hayseed": 0.9961013065087349, "well": -0.7294425761138061, "aware": 4.829826493259129, "everything": -5.761465432576411, "costs": 1.0558614326954554, "worth": -1.0750572899616082, "elevator": 10.520728549745543, "w": 6.787327758102437, "parking": 1.264426653968632, "garage": -3.802803487991429, "view": -3.848784262373144, "bathroom": 10.225142108865807, "tiny": 8.814737656617362, "shower": 2.715306092080593, "curtain": 0.9961013065087349, "stained": 3.6003095145977797, "funky": 0.9961013065087349, "toilet": -1.616588792000238, "seat": 5.789321746376596, "lid": 0.9961013065087349, "vanity": 0.9961013065087349, "featured": 0.9961013065087349, "rude": -8.49781256510223, "awakening": 0.9961013065087349, "lighting": 1.962501116038213, "normally": -0.7234903723103479, "low": 6.496770929436624, "rent": 0.18047081932085354, "dressing": 0.9961013065087349, "e": 1.9699711318115531, "holy": 0.9961013065087349, "crap": 0.9961013065087349, "looked": -10.356447724770096, "bad": -3.8750334811463945, "whole": -5.635457278057201, "traveler": 2.0391952620457725, "likes": 0.9961013065087349, "coffeemaker": 1.9771137763757032, "charge": 8.909020564864141, "chintzy": 0.9961013065087349, "coffees": 0.9961013065087349, "use": -4.691437754828725, "come": 2.1442814201958273, "nice": 2.041010684205827, "ambience": 0.9961013065087349, "upstairs": 0.050444927234308504, "bar": -1.090146126603375, "weak": 1.0767834290646112, "drinks": 6.720871402636826, "uncomfortable": 4.733371030624088, "almost": 0.9843754650159221, "asked": 3.6439391684771287, "switch": -1.8764322490402072, "marathon": 2.9028302729085445, "busy": -0.5086158150055058, "pest": 0.1886550995506086, "believe": -1.6392964495104312, "impressed": 3.4766822415999523, "online": -2.841344007618821, "next": -3.8000059522038034, "happily": -0.003541561263057647, "pay": -6.729472337132823, "someplace": 0.024374274575161455, "actually": -2.078092913901372, "treat": 0.026755156096544747, "vacationed": 0.9813993631141931, "fairmont": 3.9375018600636884, "nights": 2.6769738995863217, "july": 1.906967054551948, "staff": 1.1564239159548824, "wish": 4.790690753251392, "blocks": 12.573584119520252, "north": 0.34379929168774737, "mi": 1.7754531115145382, "ave": 4.5722448736644745, "sometimes": -0.13300199398827417, "extra": 2.024493318651231, "couple": 1.5707270616945923, "seem": -1.9395256093568645, "miles": 2.884735573346031, "millennium": -7.591857385196869, "park": -4.837713163298711, "one": 2.784024284991518, "overpriced": -4.688044998660754, "expect": -4.086425999226213, "traveling": -5.0792833546620635, "wife": -6.276598910746704, "expected": 0.10648492604386774, "cost": 2.5081693997202463, "already": 2.8414928127139074, "outrageous": -1.9138716109639593, "hit": -4.862474331121097, "king": -3.776345942085057, "figure": -0.8091723460611291, "average": -5.537692330585399, "although": 0.9785125442695158, "much": 2.2248147376566174, "arm": 0.9129787803934407, "leg": -3.7155441802327314, "unbelievable": -0.9374125770066367, "see": 1.9039909526502188, "people": -3.818130412785334, "paying": 1.0549983631439541, "normal": -0.018957769114014464, "blew": 1.8869378887533108, "amount": -0.9593762090413975, "money": 0.9277700068450344, "per": 3.7935775720960687, "basis": 0.025951608583077886, "longer": -2.931728222374334, "somewhere": -2.9330377072110947, "else": -3.9332162733251987, "guess": -2.086158150055058, "live": -1.096693550787179, "learn": -1.8748251540132734, "shame": 0.09330079461920776, "high": -4.268414630516949, "bill": -2.8488437844111782, "accommodations": -6.038153626380168, "fantastic": 0.8793190678848843, "luxury": -20.25225439719056, "excellent": 5.872354989434839, "location": 14.086961697568524, "fun": 1.7960477366745038, "decorated": -1.0518436951281211, "always": 2.144638552424035, "helpful": 3.057051873456147, "courteous": -1.6427784887354542, "whether": 0.012529389006279574, "highly": 0.8313740662480283, "recommend": -7.474063271926431, "hard": -1.8843486800988065, "rock": -9.419511324067736, "recently": -15.63667747983691, "short": -2.0650575875717982, "break": 2.7855718579804174, "wanted": -2.1841314246599803, "enjoy": 0.7919704770691348, "music": 3.0699681557096516, "certainly": -2.018183982619565, "delivered": 0.7442338025653998, "central": 0.041278533376982826, "within": 7.819112526412904, "easy": 0.7927442635635844, "reach": 4.756673908514627, "main": 3.9107467039671437, "tourist": 0.8920270230052677, "spots": -1.9413112704979019, "city": -3.8933067468230114, "however": -3.786553971607988, "superb": -0.08764620100592244, "food": -15.199101217225678, "site": -0.7690544924258207, "best": 1.598285765304604, "entertainment": -0.9601797565548644, "could": 0.9160144043332044, "barely": -4.83860599386923, "need": 1.831850242552305, "leave": -6.069640784500462, "sights": 0.02318383381446981, "know": -0.8519984524270111, "mean": -1.0034522782060058, "particularly": -1.8875033481146395, "enjoyed": -8.660635100145829, "gym": -2.8389333650784203, "facilities": -0.9702092199636916, "including": 10.490580637481028, "relaxing": -10.410196125115323, "massage": -2.025743281449957, "surpassed": 0.0, "expectations": 2.681319008362846, "every": 11.57635189428886, "possible": 1.065325436742954, "way": -2.8699145858754203, "surely": -3.8608374750751464, "staying": -4.033510907413469, "visit": 1.6520341656498319, "windy": -1.067140858903009, "james": 0.8722061843397518, "met": -0.24207612868664624, "exceeded": 1.9422041010684206, "uncluttered": 0.9930061605309366, "comfort": 0.0005356983423112407, "hot": 0.0072616886402190415, "crowded": 0.01113062111246689, "congenial": 0.9930061605309366, "located": -0.8852415106693253, "steps": 2.8895270974078153, "greatest": 1.9925002232076425, "art": -0.11419302996934615, "architecture": 3.955209666378977, "culinary": 0.9930061605309366, "cultural": 0.018898247075979882, "opportunities": 1.9596440582125532, "anywhere": 4.9750007440254755, "america": 0.9930061605309366, "provided": 0.15252522246361716, "us": 4.165590309812208, "week": 8.03538585161156, "visited": -3.8833963274902534, "check": 10.070265765899824, "quick": -5.885598642897532, "flawless": 2.7386982530281836, "suite": 7.069640784500462, "calm": 0.9930061605309366, "restorative": 0.9930061605309366, "oasis": 1.9927085503407638, "difficult": 0.19570846105770662, "praise": 0.9930061605309366, "attentive": 1.0413678164340348, "truly": 1.7771792506175412, "act": 3.81509478884557, "together": 1.2256480461891015, "day": 2.2043986786107554, "experienced": 0.13696020951757387, "problems": 3.1124668908663433, "air": -1.729025921847564, "conditioner": 2.041873753757329, "technician": 0.9930061605309366, "unable": 2.008779500610101, "quickly": 0.5018303026695634, "solve": 0.9930061605309366, "problem": 10.081991607392638, "immediately": 3.8428320585696856, "upgraded": 8.199428588434868, "bedroom": 5.945388530103271, "apartment": 3.8289634237076275, "stunning": 0.11115740602958245, "views": -0.0034225171869884823, "skyline": -0.0022618374453141276, "eagerly": 1.967887860480343, "await": 0.9930061605309366, "opening": 3.910121722567781, "new": 4.931609178298265, "cities": 2.9343174310288385, "husband": -9.806642659444659, "hyatt": 2.590488378322074, "regency": -12.153299008958067, "family": -7.560489271152644, "wedding": -2.09404482009464, "moment": -6.029284842713015, "entered": -0.9736019761316628, "treated": -0.910151483586798, "returning": -10.51602630874081, "friends": 4.895479301211274, "ready": -0.22665992083568942, "upon": -6.855986428975328, "arrival": -7.595666795631082, "impressive": -1.8828308681289248, "viewed": 0.0, "access": -1.9972619862504093, "shopping": 3.3749888396178687, "dining": -1.0584208803309425, "areas": -4.930091366328383, "dined": -1.9472337132823427, "seston": 0.0, "chop": 0.9844052260349394, "house": -3.046070057438767, "professionals": 0.0, "work": 2.6102794559685725, "grand": 2.822356477485789, "return": 6.257164965328413, "trust": -1.9276212017499479, "never": 4.271926430760989, "premium": 0.968006904556412, "price": 3.0087497395910834, "rate": 9.797506026606351, "disaster": -0.984464748072974, "though": -2.2392190708609863, "lived": -0.984464748072974, "b": 1.9139906550400285, "c": -1.926817654236481, "second": 7.227612273444243, "wait": -3.515073956132258, "receptionist": 0.8232790690753251, "finished": -0.984464748072974, "playing": -0.9256272134757895, "phone": 10.416118567899765, "baggage": -3.760840451177048, "finally": -12.486920032141901, "got": -5.998809559239309, "exactly": 0.7694711466920627, "clean": -7.20204755810839, "pictures": -3.028719383351686, "website": -7.827683699889884, "furniture": 2.6815273354959674, "falling": 0.011725841492812713, "apart": -0.9932442486830749, "probably": 3.6754263265974227, "walmart": -0.984464748072974, "plenty": -0.9693461504121901, "space": 3.2323740364870095, "smaller": 0.175917383411208, "said": 1.2363024909972917, "mention": -4.580220826761108, "ordered": -0.6511710960983303, "wrong": 0.11020505342102914, "took": -5.858426832534746, "hours": -7.701645784351657, "walls": 0.8002440403559418, "paper": -5.702121960655933, "thin": 0.9216094759084551, "little": 1.718579804172495, "sleep": -2.7448885449837803, "heater": -1.9195262045772448, "helped": -2.92946638492902, "block": 0.7821195797744115, "noise": 0.37183417160203563, "stopped": -0.7120919020267253, "working": 3.391089550906223, "middle": 3.768667599178596, "morning": 8.989702687420017, "sore": 0.8560459510133627, "cold": -5.555251331805601, "checked": -1.7064670694324573, "coffee": 12.48736644742716, "floor": 19.41659474420404, "pleasantly": 1.0058033987083719, "functional": 0.9997023898098271, "lot": 4.782476712002619, "pleasant": -1.9226511115740603, "prompt": 3.5451921073777566, "used": 1.722359453587691, "center": -6.708252730573495, "equipped": 4.6163507038480995, "great": 3.453319841671379, "end": 1.0351775244784382, "michigan": 7.51659176810214, "avenue": 4.870271718103628, "district": -1.8936638790512188, "writing": -0.037439361923752267, "recent": -7.566858129222345, "let": -0.9154787059908931, "team": -0.037439361923752267, "everyone": 3.709591976429273, "personable": -0.9886908127734294, "made": -8.155947739650605, "mundane": -0.9886908127734294, "trip": -5.108181304127854, "pleasureable": -0.9886908127734294, "spotless": 0.8883366566471236, "finest": -0.9820541055325734, "really": 1.1970477069134846, "offer": -2.704889735424541, "quality": -1.106723014196006, "product": -0.9886908127734294, "complaint": 3.6065295675723936, "internet": 2.180202970149698, "free": 4.760572602005893, "particular": -1.8533674593018066, "sofie": -0.9886908127734294, "worked": 0.8600339275616797, "front": -0.9252403202285646, "desk": 4.446653373411506, "went": -10.20490461593405, "beyond": 4.521978512544269, "smooth": -0.031278830987173004, "taxi": -0.1820183923097527, "services": -1.9511026457545906, "local": -6.847861670783607, "recommendations": 0.06699205380792238, "shall": -0.9886908127734294, "look": 0.3693640070236005, "forward": -2.9624118329811613, "month": -2.027409898514925, "thank": -0.755691794887057, "p": -1.9614892413916252, "grady": -0.9886908127734294, "fiance": -1.9638403618939912, "quite": 4.680426177792327, "annoyed": 0.807922383262403, "mostly": 0.6471235975119788, "insisted": 1.887265259962501, "along": -3.0838963126097436, "wanting": -0.998154816820928, "alone": -1.0333621023183834, "mother": -0.8521770185411148, "summer": 1.0594327549775304, "loved": 6.193416862593375, "bummed": -0.9803577274485878, "decor": -0.5640903544537366, "massages": -1.9377101871968097, "spent": -0.27186690872295466, "asian": 0.9731555608464034, "better": 7.337638760751168, "definately": 2.8519389303889766, "coming": -4.92232374036487, "spending": 0.16722716585815897, "memorial": 0.9794351358590518, "decided": -3.2405583167167644, "reserved": -5.140769619951787, "ago": 3.7908097973274604, "must": -2.6268265825421864, "say": 1.8408083092765097, "disappointing": 6.695306687300973, "given": -1.9769054492425822, "avoid": -3.877414362667778, "adjacent": 0.8658075652510342, "noisy": 7.413559120264278, "awake": 0.9794351358590518, "awaken": 1.9557453647212881, "addition": 0.9987202761822565, "requested": 1.0589268176542366, "doubles": 0.9794351358590518, "surprised": 3.033004970090176, "maker": 1.9510133626975388, "despite": 0.5601916609624713, "super": 1.2445462932650815, "less": 5.48132496056665, "january": 0.0, "th": 14.207464063569537, "mag": -1.8074759679771435, "mile": 4.471474063271926, "millenium": 4.765780780333919, "five": -4.826046843843933, "institute": 0.8425939704175471, "unusually": -0.9728877116752478, "comfy": 1.96330466355168, "offered": -3.0587184905211156, "wifi": 2.7312877592928784, "valet": 1.0733311508586054, "self": 4.91407993809708, "request": 10.655873337103062, "spend": -6.667807505728996, "visiting": 3.1015445968869972, "son": 4.5115621558882175, "mistake": 1.0904139757745306, "appear": -1.955626320645219, "web": 0.846165292699622, "creative": 0.0, "photography": 0.0, "dirty": 6.236451296092378, "westerns": 0.0, "cleaner": -0.9935418588732479, "loud": -4.747924168923544, "party": -3.828070593137109, "three": -1.4203446326002203, "calls": 4.8370881818993485, "security": 12.284872474033511, "failed": 1.0482128508080117, "stop": -0.14743608821166038, "ruckus": 0.0, "hyatts": 0.0, "hiltons": 0.0, "etc": 6.025148061069611, "polite": -5.891550846700991, "tries": -1.9984524270111008, "accommodating": -0.8738430403857028, "seemed": -2.743817148299158, "interruption": 0.0, "rather": -2.0129162822535043, "reason": -1.7129847325972443, "positive": -4.881967798577423, "negative": 7.653879348828904, "save": 0.11306211124668909, "considered": -1.0176482842772536, "chic": 0.9224725454599565, "establishment": -2.047706913484718, "lost": 0.8366120055950715, "luster": -0.9968453319841671, "filled": -0.9758935745959941, "cheap": -0.02401714234695396, "ikea": -1.737716139400613, "type": 4.801196392964495, "furnishings": -3.632124043927264, "flooded": 0.9208952114520401, "water": 2.6687003362995148, "escaped": 0.0, "showers": -0.0111008600934496, "flushings": 0.0, "neighboring": 0.9789887205737925, "sounded": -1.8550935984048094, "protective": 0.0, "levies": 0.0, "collapsing": 0.0, "elevators": 8.74533496026904, "handle": -3.0091366328383082, "guests": 1.1831195500133924, "many": 3.5480194041843993, "forced": 0.9961905895657868, "several": -0.24835570369929466, "flights": 1.9923811791315735, "stairs": -0.9068182494568614, "extended": 0.0, "periods": 0.0, "windows": 4.952560935686438, "contain": 0.0, "street": 13.55075741793399, "sidewalk": 2.851581798160769, "conversations": 0.9904169518764322, "heard": 7.625814707895598, "throughout": -0.08014642421356508, "provocative": 0.0, "listen": -0.9456563792744264, "door": 6.326240290467545, "carousing": 0.0, "tacky": 0.0, "unsettling": 0.0, "minutes": 3.17172107972977, "car": 3.2557959584536174, "sysndicate": 0.0, "competing": 0.0, "york": -0.05377816136424511, "soho": 0.0, "open": 10.386357548882474, "september": 2.869884824856403, "yorkers": 0.0, "tolerate": 0.0, "shabby": 0.947769411624654, "incompetence": 0.9968750930031844, "worst": -0.23237403648700933, "ever": -0.1792803785601619, "life": -0.07342043391565727, "noticed": -7.835034671587155, "design": -3.7536978066128985, "extremely": 3.2952888306895627, "artistic": 0.0, "conditions": -0.05166512901401744, "horrible": -2.734650754441832, "gave": 0.07630725276033451, "blankets": -0.9844945090919913, "moments": 0.028600339275616796, "figured": -3.764262968364037, "started": -3.051218713728758, "notice": -1.8628017023302879, "television": -2.8461355316806047, "disapointed": 5.712835927502158, "especially": 0.7622094580518437, "rigorous": 0.0, "relax": -7.67006934317431, "sadly": -0.9833933513883515, "settled": -1.9897622094580518, "instead": 1.9611321091634177, "frittering": 0.0, "noting": 0.0, "disapointment": 0.0, "bust": 0.0, "absolutely": 0.033183536204279634, "stare": 0.0, "wall": 4.838219100622005, "good": -1.3348412249635428, "replacement": 0.9545846849796137, "leaked": 1.9706556352489508, "ok": 4.03955239427398, "ugly": -0.9144965923633225, "pack": -2.005208178328026, "bags": -8.3423410017559, "change": 8.669295556679861, "noises": 0.0, "kept": -3.8747358709562216, "heavy": -0.9920835689414006, "sleeper": -0.9883039195262046, "white": 2.8361358292907948, "app": 0.0, "cranked": 0.0, "ipod": -0.8967887860480342, "dock": 4.899467277759591, "puddle": 0.0, "provide": -8.607273593047825, "mentioned": 5.531323472515699, "aready": 0.0, "past": 4.2068688431891905, "customers": 3.58394095413827, "dissapointed": -0.9434838248861641, "convinced": -0.8310169340198208, "gazing": -0.9869349126514092, "sites": 5.577036397726258, "boy": -1.1311865718282195, "insight": -0.9869349126514092, "approached": -3.710693134132913, "apology": 0.9433945418291122, "trying": -4.617184012380584, "mixup": -0.9869349126514092, "originally": -7.770125889110443, "occupied": -0.9869349126514092, "share": -1.9237225082586829, "kids": -2.3993035921549954, "voucher": -2.9674116841760663, "meals": -1.8627421802922532, "sushi": -1.9738698253028184, "done": -2.829618166126008, "mediocre": -3.048659266093271, "display": -1.966459331567513, "customer": 8.68489033064492, "received": -2.1057409005684353, "thing": 2.947888455700723, "snobby": 0.0, "towels": -9.39727984286182, "numerous": -3.6976578078033393, "insects": -0.9959227403946311, "furthermore": -0.9741079134549567, "closed": 5.505104014761465, "management": 6.564626052796048, "accommodate": 2.0933900776762595, "inconveniences": 0.807922383262403, "elsewhere": -2.735573346031368, "conrad": 2.7466444451058005, "plan": 0.25305794470402665, "flew": -0.9350614565042707, "confad": -0.9350614565042707, "creepy": 0.06145650427070623, "employe": -0.9350614565042707, "filthy": -1.6966459331567512, "level": -3.070831225261153, "dashed": -0.9350614565042707, "towards": -1.901758876223922, "case": -0.9736614981696974, "hand": -3.225082586827773, "beauti": -0.9350614565042707, "polished": -0.9350614565042707, "wood": -0.9234844201065444, "ac": -1.9347340852950805, "unit": -0.8570280646409333, "ting": -0.9350614565042707, "carpets": -0.9417279247641439, "velveteen": -0.9350614565042707, "true": 2.662242195172763, "greeted": -7.146424213565073, "golden": 0.050950864557602456, "nob": -0.9350614565042707, "living": -0.6807237879825005, "paradise": -1.0141662450522306, "degrees": -0.014344811166334336, "shocked": 0.953691854409095, "confrotable": -0.9350614565042707, "leather": 0.06026606351001458, "pillows": 2.1282402309455075, "huge": 3.8865807565251034, "blanket": 1.0158626231362162, "think": 3.0383321924942712, "get": -1.7181333888872354, "stone": 0.06464093330555638, "gold": 1.1076753668045594, "taste": -0.018154221600547603, "grapes": 0.035534656706645636, "fell": 1.0321419005386745, "uncontentious": -0.9350614565042707, "drowning": -0.9350614565042707, "cause": -2.8950924079640488, "face": 0.06452188922948722, "woke": -0.051218713728758074, "wont": -0.9350614565042707, "fast": -7.458974435284664, "assistance": -3.8495878098866103, "swimming": -0.9072646647421208, "pool": -0.7425671855004315, "olympic": -0.9350614565042707, "sized": -6.669682449927086, "beach": -0.9001220201779709, "suit": -1.0450581827921788, "heated": -0.9350614565042707, "swimmers": -0.9350614565042707, "pretty": -1.1633879944049283, "rich": -1.8682777298294693, "alright": 0.905449242582066, "big": 0.3371923454659087, "dinner": -8.666140888664028, "satisfied": -1.9949406267670604, "fly": -1.887146215886432, "cam": -2.767864051665129, "miss": 0.053569834231124075, "hello": 0.0, "unhappy": -0.7846492663908813, "learned": -1.956667956310824, "additional": 2.6471533585309963, "charges": 2.8222969554477544, "reservations": -8.730037796494152, "fees": 0.032766881938037555, "fee": -0.020029165798636946, "plus": -3.961786851581798, "plain": -0.9914883485610547, "ridiculous": -2.014136484033213, "remember": 0.7259307758697657, "future": -1.8921460670813368, "fine": -2.924466533734115, "sure": -5.180083926073629, "anytime": -2.0228564626052794, "soon": -6.987232522841582, "professional": 0.7297997083420136, "remodel": 0.0, "older": 4.886670039582155, "flawed": 0.0, "flush": 0.0, "germ": 0.0, "freak": -1.9377101871968097, "anything": -1.8719978572066307, "constantly": -1.0673789470551471, "touch": 0.3023421921966608, "fully": -1.9922026130174697, "booked": 2.8827118240528558, "teen": 0.0, "convention": 0.9932442486830749, "fccla": 0.0, "unfortunately": 4.684860569625904, "anyone": -5.593018064938543, "suffered": 0.0, "direction": 0.9418172078211958, "describe": -0.97648879497634, "around": -8.406148626528973, "slumber": -0.9331567512871641, "twenty": -1.0777060206541471, "due": 1.0671110978839915, "traffic": -5.665188536055474, "supervision": 0.0, "cut": 1.9751793101395791, "line": 0.036754858486354576, "jump": -0.0026487306925389127, "floors": -0.024106425404005833, "teens": 0.0, "complete": 2.9378887533109133, "zoo": 0.0, "complain": -4.591857385196869, "situation": -7.6160233326389095, "read": 5.587363471325258, "girls": 0.7777447099788697, "refreshing": -0.9728877116752478, "roof": 2.578464926639088, "top": 9.776851879408351, "member": 2.0090473497812567, "smiling": -0.033659712508556296, "station": -4.673551382399333, "concierge": 12.307996785809946, "recommended": -0.9391089550906223, "places": -6.280348799142883, "hang": 2.669236034641826, "added": 3.943602868962233, "names": -2.9495848337847086, "guest": 4.292253206749799, "list": -1.0473497812565102, "gesture": 0.9844349870539567, "monaco": -3.032290705633761, "complaints": -0.2395166810511592, "general": 2.8451831790720514, "lady": 1.1740424392131186, "children": -0.7746793250200887, "daytime": 0.0, "spoke": 0.975566203386804, "directly": 7.673224011190143, "cleaning": -5.9139906550400285, "crew": -0.15567989047945002, "knock": -1.4845986726585518, "sleeping": -2.6956340585101635, "god": 3.140055355495372, "conference": 12.09514597779828, "makes": 0.07455135263831433, "louisiana": 0.0, "resident": 0.0, "last": -0.9606559328591411, "minute": 2.997886967649772, "chose": -3.733519835719175, "knowing": -0.9704770691348472, "connect": 1.0840748787238474, "nordstroms": 1.9918752418082795, "heart": -5.632332371060385, "fabulous": 2.071456206660516, "giving": 2.966756941757686, "suggestions": 0.9260736287610488, "shows": 0.03898693491265141, "restaurants": 5.569685426028987, "joe": 1.9918752418082795, "across": 3.117645308175352, "raving": 0.9975000744025475, "warm": -1.8009583048123567, "inviting": -0.878455998333383, "workout": -2.7156632243088, "amenities": -3.871432397845302, "relaxed": -2.7919407160501177, "enjoyable": -2.7889646141483886, "amazing": 3.2990089580667243, "customization": 0.0, "reviews": 14.061605309365792, "bit": 9.99791672866879, "mixed": 1.8549745543287401, "splendido": 0.0, "villa": 0.0, "este": 0.0, "others": 2.3134430522901104, "compare": 0.9574119817862563, "claim": 0.9268474152554984, "notch": 3.692866283741555, "seasons": 3.745543287402161, "proved": -1.9155679890479451, "lovely": 4.727389065801613, "bright": 5.841433290675873, "quiet": 10.920746406356953, "round": 0.0, "stacked": 0.0, "indeed": -1.9369066396833428, "fault": 4.72488914020416, "half": -2.86211719889289, "terms": 2.9199130978244696, "overall": -10.568614029344365, "go": 1.0022915984643315, "hilton": -1.535103121930895, "cousins": -1.8790214576947115, "impeccable": -0.07675366804559389, "respectful": -2.85750424094521, "careful": -1.8643790363382042, "interrupt": -1.8790214576947115, "known": -2.9064908782476713, "serving": 0.07999761911847862, "chicken": -0.772060355346567, "wellington": -1.8790214576947115, "die": -3.7133418648254515, "moist": -1.8790214576947115, "pastry": -1.8790214576947115, "crust": -1.8790214576947115, "flaky": -1.8790214576947115, "crispy": -1.8790214576947115, "pakistani": -1.8790214576947115, "options": 0.7896193565667688, "mimosas": -1.8790214576947115, "brunch": 0.9473229963393947, "buffet": 3.904615934049582, "initially": 3.865807565251034, "goldfish": 3.7706020654147197, "left": 4.5028719383351685, "tip": 3.9488705693282937, "housekeeper": 1.996517960774977, "rewarded": 0.9968155709651498, "sipping": 0.9968155709651498, "wine": 3.682717776256659, "wii": 0.9968155709651498, "afternoon": -1.790452665099253, "printing": 0.9968155709651498, "boarding": 1.9591678819082765, "passes": 0.9625606380762477, "cozy": -0.0100889854468617, "alcove": 0.9968155709651498, "window": 11.481949941966013, "worried": -0.8334573375792387, "since": -1.6945924228445581, "hardly": 0.928960447605726, "either": -2.790036010833011, "colorfully": 0.9968155709651498, "tastefully": 1.0192553793041874, "lit": -0.9390494330525877, "ideally": 1.9673521621380317, "lines": 2.8672956162018988, "tremendously": 0.9904169518764322, "long": 2.870271718103628, "computerized": 0.9904169518764322, "option": 0.10618731585369483, "size": 3.8770572304395703, "realized": 2.87958691705604, "placed": 2.972292491294902, "smoking": -3.974435284664147, "perhaps": 5.848516413201988, "unwilling": -0.9251510371715128, "move": 0.8209874706109938, "allergic": 0.9904169518764322, "smoke": -7.466027796791762, "clearly": 8.562155888217612, "hear": 8.4932888902116, "breakfast": 10.745424243326092, "seated": 0.9904169518764322, "nearly": 0.6683432040713074, "ten": 1.8654504330228268, "server": 1.875807267640844, "charging": 4.0676467962263025, "unacceptable": 0.9910716942948127, "promised": 2.7286985506383736, "forty": 0.008749739591083598, "dollars": -2.948275348947948, "far": -0.16832832356179875, "airport": 3.881908276539389, "stood": 0.009940180351775244, "forever": -2.9723817743519536, "beginning": 0.004196303681438053, "outside": 0.9633344245706973, "walking": 4.706139698223267, "area": 2.9483051099669653, "least": 1.9265498050653254, "thicker": -0.9891669890777061, "neighbor": 0.0038689324722478496, "hole": 1.9493765066515878, "ran": -0.898395881074968, "buy": 1.9652688908068212, "vendor": -0.9891669890777061, "ridiculously": -0.9891669890777061, "charged": 6.657450671110979, "burger": -0.012588911044314158, "office": -2.773191274069224, "hoped": -0.9614892413916253, "rundown": 0.0, "housekeeping": 4.568941400553555, "sofa": 5.841552334751942, "chair": 8.383827862266005, "table": 4.209606856938781, "attached": 6.613225796851284, "considerable": 0.0, "gap": 0.9953275200142853, "lack": 2.9938097080444033, "bottom": 3.935686437903634, "broken": 11.651349662212434, "invited": 0.0, "assistant": -0.9876194160888069, "managers": 3.8146186125412935, "slight": -0.9481563048718789, "adjustment": 0.8571471087170025, "kimpton": 1.9456861402934436, "says": 0.045415315020386295, "specifically": -1.9731257998273861, "neglected": 0.0, "fish": 0.993660902949317, "floating": 0.0, "dead": 0.0, "bowl": 0.13079967858099462, "note": -0.09389601499955358, "disregarded": -1.9690187792029998, "things": 3.9824112377607808, "may": 3.875509657450671, "matter": -1.9844349870539568, "might": 5.652331775840005, "superior": 3.812207970000893, "associate": -1.7386089699711318, "job": -1.8486652182970744, "features": -1.8191125264129044, "research": -0.886431951430017, "moncaco": -0.886431951430017, "part": 5.1071694294812655, "lights": -2.800065474241838, "upstiff": -0.886431951430017, "hospitality": 1.1272878783369542, "curtains": 1.9657153060920807, "appeared": 9.790512187137288, "soft": -4.751614535281688, "paid": -1.0054462664801642, "advisor": 4.406267670605041, "property": 7.739591083598702, "ranked": 0.9004196303681438, "overlooking": -0.049314008511651436, "fresh": -0.861283890360406, "modern": -6.554090652063927, "sofitel": -3.2692777000684505, "attentiveness": -0.0861283890360406, "cleanliness": -4.73247820005357, "head": 4.691021100562483, "bunch": 0.7589655069789589, "european": 3.629981250558019, "style": 2.0313085920061904, "cafe": 0.9375911431207404, "straight": -0.050861581500550576, "ahead": 0.7900955328710455, "shoppers": 0.9004196303681438, "value": 3.667271807386685, "crazy": 2.8860748192018093, "dollar": 1.8945864706407547, "inclusions": 0.9004196303681438, "sunday": 4.908722954673968, "priceline": 10.440522603493944, "com": -0.9182762417785185, "impression": 2.8075950120532127, "sliding": 1.9806553376387608, "doors": -0.6209934228147972, "wow": -0.2186542067200381, "upscale": -1.1229130085414125, "mall": 4.7921490431832385, "couches": 0.9953275200142853, "seats": 1.8170887771197286, "watch": -2.952769262819559, "lake": 6.1260379155382285, "fountains": 0.0, "escalator": 0.0, "directory": 1.8292610338978006, "pm": 9.167078360763073, "suggest": -4.625814707895598, "early": 1.942769560429749, "women": -0.7471503824290944, "higher": 0.9705365911728817, "happy": -0.6491771078241719, "veiw": 0.0, "river": 8.070622898128033, "information": -0.9095860242254695, "wouldnt": 0.0, "headboards": 0.9979464896878069, "st": 5.89925895062647, "century": 0.9953275200142853, "plug": 0.0, "touring": 0.9574119817862563, "toiletries": -0.9492872235945359, "feature": 0.03925478408380703, "computers": 0.9591381208892592, "gives": 1.1330615160263087, "pass": -0.17969703282640398, "simply": -1.1861551739531562, "screen": 0.01499955358471474, "click": 0.9920538079223833, "airline": 0.0, "icon": 0.0, "following": 2.7847683104669505, "instructions": 0.0, "ohare": 0.0, "able": 5.9908931281807085, "skip": 0.0, "frustrated": -1.9382161245201035, "passengers": 0.0, "experiences": 1.9234546590875272, "travel": 8.824558792893068, "alot": -1.001220201779709, "choice": -3.72104996875093, "families": 0.9730067557513169, "couples": 0.0, "im": 1.9456861402934436, "passing": 0.9763102288622363, "roomy": 3.7697389958632184, "minibar": 2.806880747596798, "snack": 1.6888187851552037, "assortment": 0.0, "tucked": 0.9963691556798905, "nicely": -0.8435760840451176, "corner": 4.9467872979970835, "hall": -1.9571143715960835, "incredible": 2.67402755870361, "doorman": 9.352906163507038, "gentleman": 2.756108449153299, "toothpaste": 0.0, "unusual": -1.050087795006101, "strongly": -1.74598970268742, "exquisite": -3.767358114341835, "boasting": -1.8196184637361983, "personal": -5.542364810571114, "ambiance": -2.7676259635129905, "feel": 3.140233921609476, "welcome": 1.8343799291687748, "responded": -0.8784262373143656, "requests": 1.1012767477158418, "various": -3.6202196363203476, "items": -2.5062349334841225, "appreciated": -1.8455700723192763, "homey": -1.8796762001130918, "designed": 0.10478854795988214, "interior": -4.532484152257373, "disposal": -1.8196184637361983, "wander": -1.8196184637361983, "meal": -4.724591530013988, "talbot": -3.8954793012112736, "group": 3.8842593970417547, "functions": 0.0, "laws": 0.0, "deal": -1.6094461474360882, "town": -1.8481295199547632, "lured": -0.9688997351269307, "promises": 0.0, "boutique": 0.17633403767745007, "treatment": -1.84432010952055, "truth": 0.9986905151632391, "honor": 2.816791166929556, "reception": 6.729859230380049, "persistently": 0.0, "confused": 3.8182494568614027, "contact": 0.8380702955269188, "multiple": -1.851254426951579, "caused": 0.0, "year": 1.997321508288444, "old": 7.258504211184191, "daughter": -2.6597720305943273, "departing": 1.942144579030386, "worse": 3.8666706348025355, "mistakes": 0.985684949852683, "human": -0.9959227403946311, "supposed": -3.769887800958305, "distinguish": 0.0, "correct": 3.8245290318740515, "error": 0.983125502217196, "point": -1.7547394422785036, "occasions": 0.985684949852683, "credit": -0.9464004047498586, "card": -0.005029612213922205, "expenses": 0.0, "assurred": 0.0, "course": -0.985595666795631, "brother": 0.8853903157644117, "asthmatic": 0.0, "searing": 0.0, "humid": -0.9314306121841612, "six": -0.9816672122853487, "physically": 0.9455968572363918, "saw": 1.090771108002738, "record": -0.9785125442695158, "explaining": -0.9803577274485878, "recalls": 0.0, "indignation": 0.0, "clerk": -20.34263861194607, "put": 6.700782714800154, "onto": -1.9916966756941759, "escape": 0.0, "heat": 2.74170411594893, "prolonged": 0.0, "waiting": -0.2122555876313205, "leaving": -1.9694354334692419, "cubs": 1.7699770840153568, "game": 5.73643641558287, "putting": 4.525252224636172, "account": 1.1185381387458706, "agreed": 1.9417874468021785, "atm": 0.0, "frozen": 0.0, "unathorized": 0.0, "overuse": 0.0, "billing": 0.983125502217196, "debit": 1.9883336805452219, "automatically": 1.9808339037528644, "ubtil": 0.0, "essentially": 0.001577334007916431, "drained": 0.977203059432755, "entire": -5.896342370762775, "discuss": -0.9520847593821612, "bank": 0.0, "rectify": 1.0222612422249338, "events": 1.027290854438856, "monday": 1.9523823695723341, "days": 4.551769292580578, "honeymoon": 0.06095056694741228, "calling": 2.693312699026815, "fraud": 0.0, "division": 1.9561024969494956, "aggregious": 0.0, "insults": 0.0, "continued": 0.01523764173685307, "form": 0.0, "covering": -0.9816672122853487, "manager": 3.8948840808309275, "suggested": 3.938662539805363, "mistaken": 0.0, "talk": -0.14791226451593703, "matters": 0.0, "witnessed": 0.0, "insinuation": 0.0, "lying": 0.9512514508496771, "running": -0.9291687747388471, "department": 0.0, "refer": 1.9868456295943573, "departments": 0.0, "voice": 0.0, "mail": 1.9878872652599624, "name": 4.388411059194667, "neither": 0.9730067557513169, "communication": 0.985684949852683, "mangement": 0.0, "existant": 0.987024195708461, "fortuneatly": 0.0, "signature": -0.9909228891997262, "insult": -0.00035713222820749383, "poorly": -0.07184309990774083, "serve": -1.8404809380673195, "neighborhood": 5.770572304395703, "cheaper": 0.04446296241183298, "unfortunate": 0.1594297788756287, "circumstance": -0.8388440820213684, "entrance": 3.0631528823546916, "counter": -6.594744204041547, "woman": -0.15597750066962293, "terse": -0.8388440820213684, "kind": -0.8987232522841582, "changing": -1.014701943394542, "snubbed": -0.8388440820213684, "tremendous": 1.1322282074938246, "imposition": -0.8388440820213684, "linens": -6.495431683580846, "scratchy": -1.7146513496622124, "musty": -2.8012261539835124, "smell": -10.668670575280498, "cleaned": -9.321091634177554, "properly": -3.9068182494568613, "trash": -3.7947977738757777, "waste": -2.8372369869944345, "basket": -0.8388440820213684, "condom": -1.8361060682717776, "shampoo": 0.22820749382458855, "pot": 0.13511502633850184, "ask": -3.5623642153507338, "shocking": -0.8388440820213684, "mints": 0.807922383262403, "resist": -0.17160203565370077, "issues": 6.383560013094848, "except": 1.6616767358114342, "needed": -1.836760810690158, "available": -6.940418439927383, "suppose": 2.4236778667301566, "attended": 3.7618523258236363, "third": -1.3291866313502574, "awkward": 0.807922383262403, "position": 1.8016428082497544, "computer": -1.322401119014315, "ache": -0.1917502455284069, "later": 5.273325198654802, "fourth": 0.807922383262403, "key": -2.4694205529597335, "thankfully": -5.013868634862058, "guy": 1.5956072735930478, "meet": 1.7811077051278237, "tell": 8.46614684086783, "fifth": -0.10588970566352192, "tv": 7.5838219100622, "remote": -0.9537513764471296, "control": -0.17731615130502068, "channels": -0.17374482902294575, "different": 1.5007291449659237, "volume": -0.15356685812922236, "sixth": 1.7604535579298235, "comedy": 0.807922383262403, "channel": -1.0053569834231124, "minor": -1.182762417785185, "stepped": -1.7770006845034374, "began": -1.9056278086961698, "coolest": 0.037052468676527485, "separate": 5.788994375167405, "tub": 6.524270111008601, "desserts": 0.9715782268384869, "cheese": -1.7809886610517545, "spread": 1.8583673104967113, "eno": 0.9715782268384869, "yummy": 0.055891193714472785, "favorite": -4.292342489806851, "pleasure": 1.0509806255766196, "honestly": 0.7778339930359215, "tops": -1.9518764322490403, "class": -0.05812327014076962, "distance": 2.9646736704264756, "travellers": 0.0, "stylish": -1.933037707211095, "orange": 2.87991428826523, "loop": 1.9787803934406714, "midway": 0.9623523109431267, "forget": -2.905479003601083, "taking": -0.06892652004404631, "train": 4.935716198922651, "immaculate": -1.113359721436862, "sq": -1.9041695187643224, "ft": -0.9593464480223803, "grays": 0.0, "soothing": -0.9731257998273861, "jarring": 0.9997023898098271, "poor": -1.882741585071873, "trouble": -6.580488675932264, "reading": 0.6657242343977858, "finding": -4.909437219130383, "keys": -2.100264873069254, "kidding": 3.434838248861641, "dark": 3.066277789351507, "didnt": 0.9775006696229279, "heating": -3.800273801374959, "lamp": 0.9920538079223833, "side": -1.0215172167495015, "aveda": -0.08127734293622213, "products": 1.8519389303889766, "tons": 4.838576232850213, "natural": 3.7081336864974257, "light": 0.05220082735632868, "darkness": 0.0, "firm": -1.8773548406297431, "plush": -0.8596470343144549, "pillow": -4.72643671319306, "largish": 0.0, "dvd": 0.9810124698669682, "player": 0.9789887205737925, "safe": 0.9525311746674207, "munchies": 0.0, "treadmills": -0.8886640278563138, "ellipticals": 0.0, "bikes": 0.0, "weights": 0.026665873039492874, "video": -0.12696050712776405, "surveillance": -1.9607154548971757, "safety": 1.8331002053510312, "headphones": 0.0, "disposable": 0.0, "ear": 0.0, "pads": 0.0, "complimentary": 3.214249575905479, "green": -3.8589922918960746, "apples": 0.0, "suggestion": 0.0, "nd": 2.783726674801345, "l": 4.721079729769947, "dont": 0.0008035475134668611, "traverse": 0.0, "amiable": 0.0, "nasty": 0.993452575816196, "personnel": 0.994583494538853, "newspaper": -2.0300288681884466, "smile": 4.528228326537901, "stamp": 0.0, "tower": 2.034820392250231, "drury": 0.0, "theater": 1.8518496473319246, "john": 1.9727686675991787, "hancock": 2.662986220648195, "magnificent": -2.0187494419808933, "thrifty": 0.0, "gourmet": 0.0, "pantry": 0.949197940537484, "n": 2.93122228505104, "deli": 0.0, "delicious": -4.826344454034106, "egg": 1.9131871075265616, "toasted": 0.0, "roll": 2.895538823249308, "butter": -0.9298532781762447, "partake": 0.0, "tweens": 0.0, "toddler": 0.0, "set": 3.810243742745752, "labor": -1.9340495818576828, "nicest": -0.907086098628017, "caring": 0.9986905151632391, "glasses": -4.830064581411268, "sharing": 0.9833040683312997, "drink": 6.865004017737568, "sent": -0.9589000327371209, "posts": 0.985684949852683, "talking": -3.0373500788667003, "bathrooms": 11.337876848903306, "tubs": 0.0, "grant": -1.7627153953751376, "buckingham": -0.9741079134549567, "fountain": 0.0, "museums": -2.0433320436891758, "theatres": 0.0, "closer": 3.8161959465492097, "quieter": 0.0, "scenic": 0.0, "hotwire": 0.9838100056545936, "bargain": 0.9997023898098271, "thirty": -0.9314306121841612, "years": 2.9856551888336655, "indifferent": 1.0250290169935419, "commendation": 0.0, "waiters": 1.9268771762745156, "waitresses": 0.0, "shop": 0.994375167405732, "bell": 5.459272045474837, "persons": 0.0, "honors": 0.0, "lowered": 0.0, "moderately": 0.0, "inquired": 0.0, "south": -0.8839022648135473, "hallways": 5.9435135859051815, "ballrooms": 0.0, "choose": 4.6976875688223565, "tasted": -1.9508943186214696, "extend": 0.9815779292282968, "without": 3.9348233683521325, "museum": -5.619029195559656, "mccormick": -0.9741079134549567, "prices": -7.9359542870747894, "classier": 0.0, "fancier": 0.0, "standard": -2.60173804351061, "motel": -2.151275259664891, "takes": 0.9455968572363918, "constant": 1.9356864379036338, "construction": 12.271271688342608, "revealed": 0.0, "updating": 1.9470253861492217, "facelift": 0.0, "public": 5.765959346448023, "needs": 0.1318710752656171, "serious": 0.9961905895657868, "odor": -3.765483170143746, "cigarette": -0.08731882979673224, "involve": 0.0, "granted": -1.9602095175738818, "glance": 0.05255795958453618, "severely": -2.9130680634504924, "lacking": -0.9375018600636886, "temperature": 1.8415523347519418, "regulated": 0.0, "commanding": 0.0, "rates": 0.0679444064164757, "taken": 0.9143477872682361, "something": 3.7380732716288207, "battle": 0.0, "mattress": 0.7886372429391982, "horribly": 0.07175381685068896, "updated": 0.9967858099461325, "skipped": 0.0, "mattresses": -1.9300020832713312, "worn": 3.674533496026904, "indentations": 0.0, "lie": -0.9849409243772507, "sort": -0.6948007499776792, "sink": 1.7584000476176305, "basic": 0.03621916014404333, "issue": 2.2327311687152167, "times": 9.48495580488676, "calming": 0.0, "raucous": 0.0, "conducive": 0.9944942114818012, "happier": 1.8170887771197286, "classy": -5.4331716317966725, "decent": 1.8701824350465759, "serene": 0.0, "words": 0.0, "define": 0.0, "totality": 0.0, "hustle": 0.0, "bustle": 0.0, "affect": 0.0, "relaxation": 0.0, "posh": 0.0, "lounge": 0.8401535668581293, "flashes": 0.0, "smiles": 0.7717925061754114, "angle": 0.0, "responsive": 0.9779768459272046, "cap": 0.983125502217196, "making": -2.7262879080979734, "rex": 0.0, "learnt": 0.0, "oriented": 0.0, "felt": 2.257284009404482, "gonna": 0.0, "omni": 6.4489152108568195, "oppertunity": 0.0, "clerks": -1.899318472664504, "celebrity": -0.9708937234010893, "lots": 1.1446683134430522, "cramp": 0.0, "indoor": -2.8932472247849765, "comes": 1.0171125859349424, "sundecks": 0.0, "tan": 0.0, "vacation": -10.66765870063391, "traveled": -1.002351120502366, "checking": -0.47281330912770453, "atrium": 0.9911609773518645, "delight": 1.9818457783994523, "ultra": 1.957977441147585, "furnished": -0.031695485253415076, "sleek": -2.121335674533496, "pressed": 0.0, "bistro": 0.0, "turned": -8.760780929139013, "inadequate": 2.9256569744948067, "restful": 0.9944942114818012, "base": -0.9787803934406714, "employer": 0.0, "sending": 0.0, "imagined": -0.8596470343144549, "frustration": 0.9268474152554984, "irritation": 0.0, "heaped": 0.0, "inept": -0.9959227403946311, "system": -5.578197077467933, "duty": -0.9677688164042737, "mr": -0.9728877116752478, "chad": 0.0, "montgomery": 0.0, "previously": 0.9123537989940775, "angry": 0.0, "bland": -0.9972619862504092, "colorless": 0.0, "boasts": -0.9436028689622332, "attention": 0.9905062349334841, "detail": 3.7941727924764144, "seeing": 1.2120770215172167, "stains": 0.1526740275587036, "bedding": 2.628939614892414, "washed": -0.02297550668134877, "occupant": 0.0, "stressful": 0.89134251956787, "meeting": -4.900389869349127, "undercooked": 0.0, "served": 2.597154846581947, "sloppy": 0.0, "disgruntled": 0.0, "waitstaff": 0.0, "afterward": -0.9876194160888069, "assured": -1.6464688550935984, "asha": -1.9174726942650517, "purifying": 0.0, "ritual": 0.0, "primarily": -0.9456563792744264, "okay": -3.0583315972738907, "jojoba": 0.0, "oil": -0.9944346894437666, "broke": 0.8476831046695039, "hives": 0.0, "body": -0.824290943721913, "portion": 0.0, "foulest": 0.0, "smelling": -1.7278354810868723, "candles": 0.0026189696735216214, "choking": 0.0, "walked": -7.8177137585190914, "masseuse": 0.0, "directed": 2.6917651260379154, "hands": -0.9393768042617779, "wandered": 0.0, "liking": 0.0, "certain": -1.9457754233504956, "menu": 0.05913514478735752, "closing": 0.1782387428945567, "beg": 0.0, "reconsider": 0.0, "handful": -0.9728877116752478, "suitcase": 0.9489003303473111, "full": 9.96791762149936, "pending": 0.0, "court": 0.0, "guarantee": 0.0, "regret": -1.906877771494896, "evening": 3.758013154370406, "members": -2.9616975685247464, "loyalty": 0.0, "program": 1.0846403380851761, "el": 4.778488735454302, "hare": 4.798339335138835, "airports": 0.0, "fitzpatrick": 0.960239278592899, "number": -0.06380762477307222, "june": 0.13434123984405227, "written": 2.635725127228356, "confirmation": 0.02708252730573495, "cancelation": 0.0, "policy": 5.882920151185977, "attempted": 2.8578613731734173, "cancel": 2.969227106336121, "sold": 0.9963691556798905, "budge": 0.0, "common": -0.8882473735900718, "advise": -1.924168923543942, "offers": -3.914972768667599, "flexiblity": 0.0, "emergencies": 0.0, "sends": 0.0, "expensive": 0.9422338620874379, "book": -0.73994821582691, "travelled": 0.8853903157644117, "christmas": 0.9885717686973602, "based": 1.9159548822951697, "tripadvisor": 0.0, "loads": 0.0, "plate": 0.9953275200142853, "connected": 1.9456266182554092, "useful": -0.8725930775869766, "snowed": 0.0, "chestnut": -1.0374393619237523, "taxes": 1.8088449748519388, "dumpsters": -0.9940180351775245, "yes": 6.664176661408886, "polyester": -0.9940180351775245, "cotton": -0.9940180351775245, "lower": -0.8867593226392072, "featuring": -1.945299247046219, "lately": -0.9940180351775245, "thursday": -0.086068866998006, "quoted": -0.9940180351775245, "salad": -1.9557751257403053, "lettuce": -0.9940180351775245, "limp": -0.0006249813993631142, "sitting": -2.9468170590161007, "castle": -0.9283354662063629, "seconds": 0.06970030653849588, "receptionists": -0.9283354662063629, "bag": 2.035177524478438, "helping": -2.925091515133478, "carry": 0.013898395881074967, "wishing": -0.9283354662063629, "settling": -1.9078896461414838, "resting": -0.9875598940507723, "star": 4.819142287431922, "glad": 1.721347578941103, "starters": -2.842088033094253, "reaching": -0.9786613493646023, "ring": -0.9786613493646023, "endlessly": -0.9786613493646023, "someone": -5.742061248177137, "snooty": -0.9786613493646023, "impolite": -0.011249665188536056, "altogether": -0.9392279991666914, "unhelpful": 0.9208059283949882, "guiding": -0.9786613493646023, "metropolitan": -0.9786613493646023, "wi": -2.882324930805631, "fi": -2.882324930805631, "activity": -0.012023451682985626, "uninterrupted": -0.9786613493646023, "log": -0.0006845034373976964, "attempts": -0.9786613493646023, "attractive": 0.8532781762447547, "utter": 0.8618493497217344, "delivering": -0.9786613493646023, "prior": 7.6855450730633015, "scheduled": 0.0, "receiving": -1.9893455551918098, "email": 3.874378738728014, "upgrade": 0.05446266480164281, "accepting": -0.9634237076277492, "nobody": -0.672896639980953, "knows": 0.9847325972441296, "typical": -1.8156304871878812, "notified": 0.0, "review": 3.812118686943841, "posted": -0.9272640695217405, "newly": 2.710425284961757, "developing": 0.0, "thechicagocritic": 0.0, "sudden": 0.0, "queens": 3.754650159221452, "select": -1.935805481979703, "fan": 2.9683342757656024, "controllable": 0.0, "faboulous": 0.9800601172584149, "lodge": -0.9741079134549567, "net": 0.0, "world": 6.79125621261272, "uses": 1.9655069789589596, "ease": 1.808755691794887, "checkout": -0.08461057706615875, "shit": 0.0, "hold": 2.7745602809440193, "candle": 0.0, "las": 0.0, "vegas": 0.00824380226778965, "ideal": -1.9904169518764323, "ceilings": 0.0, "larger": 11.390494330525877, "flowers": 3.7823279069075326, "princess": 0.0, "sufficient": 1.8409571143715961, "hangers": 0.0, "compliments": 0.936728073569239, "hr": 0.9815779292282968, "goodness": 0.0, "ice": 8.47287283116574, "servers": 3.5836135829290794, "surly": 1.9741079134549566, "versed": 0.8461950537186393, "english": 1.8836344156423916, "monitors": 0.0, "silly": 0.0, "turn": 1.8439034552543079, "random": -0.09502693372221065, "incredibly": -0.8809559239308354, "everybody": -0.9865480194041844, "wearing": -1.099669652688908, "overcoats": 0.0, "fridge": 4.854528139043481, "usable": 0.0, "store": 0.04678432189518169, "bucket": 0.9512514508496771, "cable": -0.983839766673611, "flat": 1.03065384958781, "sucked": 0.0, "soooo": 0.9448230707419422, "bored": -0.9990178863724294, "frequent": 2.0404452248444986, "familiar": 0.9731555608464034, "rituals": 0.9731555608464034, "cancellations": 0.9731555608464034, "atlanta": 0.9731555608464034, "shuttle": 2.9549715782268384, "lieu": 0.9731555608464034, "priced": 3.1470194339454185, "taxis": 0.9731555608464034, "prefer": 2.0186601589238418, "reconfirming": 0.9731555608464034, "preference": 0.9731555608464034, "suited": 1.969524716526294, "linen": 2.9519061932680577, "feather": -0.8602720157138181, "named": 2.840004761763043, "encompass": 0.9731555608464034, "factory": 4.592482366596232, "tags": 0.9731555608464034, "ate": 2.01241034493021, "aria": 4.879944049284248, "stand": 0.907175381685069, "fusion": 0.9731555608464034, "gourmand": 0.9731555608464034, "foodie": 0.9731555608464034, "appreciate": 1.9522038034582303, "drawback": 1.9676497723282045, "stick": 0.9731555608464034, "theme": 1.9522038034582303, "solely": 0.9731555608464034, "missed": 3.6574209100919615, "mark": -0.006398619088717598, "relatively": -4.6263504062379095, "scrambled": 0.9731555608464034, "eggs": -2.8594089461623167, "metallic": 0.9731555608464034, "getting": -2.6492068688431893, "passed": 0.7675366804559388, "spot": -1.01889824707598, "doormen": 6.629832445462933, "willing": -1.0536888783071932, "lackluster": 0.8571471087170025, "shape": -1.0274694205529598, "hair": 1.801702330287789, "pressure": 1.9009255676914378, "date": -0.009880658313740662, "fashioned": 0.8571471087170025, "liked": -5.787774173387697, "vending": 0.8571471087170025, "machine": 1.8505104014761464, "hike": -0.12270468140829142, "popular": 1.842474926341478, "destinations": 0.8571471087170025, "current": -1.9391089550906222, "underwent": 0.8571471087170025, "renovations": -1.0874676348918186, "update": 1.8337251867503943, "inclined": 0.8571471087170025, "months": 3.904020713669236, "stays": 6.636439391684771, "terrific": -1.0409511621677927, "concern": -1.9592869259843457, "dissatisfied": -1.9855659057766137, "obligatory": 0.0, "teenage": 0.0, "decision": -3.9164608196184636, "reasonable": 0.03678461950537187, "according": -0.8074462069581263, "younger": 0.9591381208892592, "niketown": -0.8985446861700545, "watertower": -1.8961042826106367, "refreshed": -0.8985446861700545, "allow": -1.7854230528853308, "pets": -2.8899437516740574, "satayed": -0.9964881997559596, "bedrooms": 0.0030058629207464064, "linnens": -3.722359453587691, "shampoos": -0.9964881997559596, "travelzoo": 3.8864021904109998, "included": -3.678729799708342, "vouchers": 0.9937204249873516, "beverages": 0.0, "signed": -0.052349632451415135, "concerned": -1.925478408380703, "totally": 0.04160590458617303, "asking": -2.9758340525579596, "baby": 0.9736614981696974, "milk": -0.9966072438320288, "arranged": 2.9040802357072706, "wowwwww": 0.0, "speed": -7.719085741495789, "breakfasts": 1.7713758519091694, "oj": 0.0, "chocolate": 2.564923662986221, "belgian": 0.0, "waffle": 0.0, "whipped": 0.0, "cream": 2.7171215142406475, "strawberries": 0.9844349870539567, "reported": -2.0030058629207463, "care": 0.8876819142287432, "siren": 0.0, "bother": 0.21948751525252225, "consider": 6.5722448736644745, "american": -1.898068509865778, "girl": -4.641230915746555, "package": -3.3835600130948484, "apparently": -3.9347340852950805, "idea": 0.8908961042826107, "building": 9.335823338591114, "whatsoever": 0.021785065920657123, "earth": -0.8886937888753311, "breath": -0.8693491265140918, "feeling": 6.5922442784440936, "situated": 0.07696199517871492, "famous": 0.13963870122913008, "ages": 1.0176185232582364, "protested": 0.9779768459272046, "avail": 0.9779768459272046, "broom": 0.9779768459272046, "closet": 4.01449361626142, "lop": 0.9779768459272046, "sided": 0.9779768459272046, "rotate": 0.9779768459272046, "wake": -1.9066099223237403, "aches": 0.9779768459272046, "headaches": 0.9779768459272046, "arms": 0.9779768459272046, "slow": -2.868753906133746, "inconsistent": 1.9559536918544091, "generally": 1.1113359721436862, "restart": 0.9779768459272046, "iphone": 0.061575548346775394, "nonsensical": 0.9779768459272046, "mornings": 0.9779768459272046, "ones": -1.9603583226689683, "hung": 0.05705187345614714, "replace": 1.9906252790095533, "vastly": 0.9779768459272046, "loves": 0.9779768459272046, "nickel": 0.0004761763042766584, "dime": 1.9721436861998154, "regardless": 0.9779768459272046, "nonexistent": 0.9779768459272046, "deck": -0.011338948245587928, "passport": 0.9779768459272046, "points": 5.716407249784233, "corporate": -2.904020713669236, "undergoing": -0.9118181006517663, "changes": 1.8661646974792416, "mini": 2.819291092527008, "missing": 2.760483318948841, "thinking": 0.9263117169131871, "bars": 4.866194458498259, "west": -0.918335763816553, "underground": 0.9779768459272046, "tasty": 1.8708669384839738, "edible": 0.9779768459272046, "brag": 0.9779768459272046, "boat": 1.9639891669890777, "tours": -0.011338948245587928, "navy": -2.849141394601351, "pier": -1.874676348918187, "faced": 0.9779768459272046, "sliver": 0.9779768459272046, "stations": 0.9779768459272046, "wildberry": 0.9779768459272046, "randolph": 0.9779768459272046, "eat": -3.5533466265884943, "conclusion": 0.08086068866998006, "holiday": 1.7840838070295526, "inn": 2.9838992887116453, "express": 0.9779768459272046, "western": 0.06395642986815868, "extensively": 0.977203059432755, "europe": 0.9129787803934407, "seen": 4.816553078777417, "unprofessional": -1.093419838695277, "incompetent": 2.826642064224279, "yelling": -0.04118925031993095, "halls": -1.6109937204249873, "slamming": 0.9730067557513169, "sell": 0.9997023898098271, "bottles": 2.7808696169756852, "renovated": 1.7348888425939704, "endure": 0.0, "discount": 4.617064968304515, "complained": -4.755632272849022, "cares": 0.0, "fair": 3.8356001309484835, "sub": -1.0082140412487723, "par": 1.8475045385554, "inner": 0.0, "tough": 0.0, "ratings": 1.7529240201184488, "tips": -2.816344751644296, "props": 0.0, "banging": -0.9314306121841612, "bumping": 0.0, "grinding": 0.0, "knew": -0.23032052617481621, "redbull": 0.0, "strong": -0.9728877116752478, "sound": -1.1523466563495135, "minded": 0.0, "bug": -1.0391059789887205, "cig": 0.0, "burns": 0.0, "carpet": 4.63414779322044, "iron": 0.9268176542364811, "gray": -0.04053450790155055, "furry": 0.9574119817862563, "looks": -3.836373917442933, "rat": 0.0, "imagine": -0.9074729918752418, "dna": 0.0, "gags": 0.0, "faucet": -0.9576500699383947, "lose": 0.0, "encountered": 1.005416505461147, "stuff": 3.735573346031368, "meetings": 0.8068509865777804, "lunch": 1.967292640099997, "scene": 0.9542275527514062, "cramped": 1.0230945507574178, "maybe": 2.865063539775602, "nicer": -1.9646736704264753, "hell": -0.9728877116752478, "shocker": 0.0, "charming": 1.114996577482813, "coast": -0.8386655159072647, "vs": 0.9133359126216481, "concrete": 0.9245558167911669, "jungle": 1.7578643492753192, "rush": 0.8787238475045386, "historic": 2.887146215886432, "pump": 2.690574685277224, "band": 1.6666170649683045, "saturday": 5.8192018094699565, "celebrities": 1.9006279575012648, "gone": 0.8540222017201868, "obviously": -5.866313502574328, "caters": -0.9859527990238386, "corporations": -0.9859527990238386, "hosting": -0.9859527990238386, "conferences": -0.1702032677598881, "represent": -0.9859527990238386, "groups": -0.0038094104342132674, "revenue": -0.9859527990238386, "measure": -0.9859527990238386, "cheaply": -0.9859527990238386, "superficial": -1.9680664265944465, "shaped": 0.003124906996815571, "corridor": -0.9859527990238386, "attendant": 0.012321061873158536, "unless": -3.881908276539389, "extrodinary": 0.010773488884259398, "scenary": -0.9515788220588673, "shining": 0.9897622094580518, "breathtaking": -0.9473229963393947, "excellence": -0.9515788220588673, "tables": 1.8307788458676826, "host": 0.01836254873366864, "ballet": -0.9515788220588673, "dj": -1.9224725454599565, "camera": -0.9515788220588673, "road": 0.999494062676706, "show": 8.616559030981222, "pleased": -3.590131246093866, "marks": 0.0, "bonus": -0.011160382131484183, "help": -4.9274426356358445, "suv": 0.0, "drove": 1.9625903990952651, "stated": 4.972798428618196, "talked": -1.1352043093955537, "yet": 6.7252462724323685, "attitude": 2.7876551293116276, "thats": 0.0, "generic": -3.808934257908991, "unimpressive": -1.9044671289544954, "packet": -1.9044671289544954, "instant": -1.9044671289544954, "personality": -1.798131008005714, "absolute": 0.9494657897086396, "aside": -0.1274366834320407, "raised": -0.9260141067230142, "anymore": -2.913812088925925, "regarding": -0.8596470343144549, "accomidations": -0.8596470343144549, "mom": -1.7823279069075326, "enjoying": -0.9158953602571352, "exciting": 0.11341924347489658, "friday": -0.8455105502812417, "informed": -1.3025207583107645, "blamed": 0.9696139995833457, "shortage": -0.8596470343144549, "maids": 1.1609773518645279, "manage": 0.13240677360792832, "start": 0.19698818487545014, "allowed": 0.02743965953394244, "doll": -0.8596470343144549, "surprise": 2.8686943840957113, "rest": -4.823963572512723, "fairly": -3.7912264515937024, "smoothly": -0.8596470343144549, "managed": -0.7931311568108093, "claimed": 1.9222344573078183, "mins": 1.9841076158447666, "shops": 1.1485372459153003, "genuinely": 0.9663998095294782, "slept": 6.774351953810898, "seating": 1.031487158120294, "chairs": 1.9770244933186512, "stereo": -0.9875598940507723, "gel": -0.9996726287908098, "lotion": 0.9997023898098271, "iced": 0.0, "barrel": 0.0, "dog": -0.9706258742299336, "biscuits": 0.9574119817862563, "sevice": 0.9305080205946251, "birthday": -1.7707211094907889, "provides": 0.8736644742715991, "marshall": 0.0, "field": 2.9458647064075474, "traditional": 0.011398470283622512, "manner": 0.0, "please": -1.8813428171780602, "pickiest": 0.0, "eaters": 0.0, "suites": 2.8304812356775098, "gorgeous": 2.6289098538733966, "booking": 0.2350525281985655, "coupon": 0.9812207970000892, "causing": 0.9812207970000892, "period": 1.9167584298086366, "belonged": 0.9812207970000892, "restroom": -0.0016666170649683046, "tank": 0.035564417725662927, "stainless": 0.9812207970000892, "steel": 0.9812207970000892, "valve": 0.9812207970000892, "dresser": -0.9820838665515907, "clothes": 0.9930061605309366, "wastebasket": 2.977292342489807, "cover": 4.674979911312163, "icebucket": 1.9624415940001785, "folding": 0.9812207970000892, "luggage": -1.4487961667807505, "strap": 0.9812207970000892, "eating": 1.9702687420017262, "nearby": -2.6417666140888665, "disappointment": 1.9369959227403946, "outmoded": 0.0, "combine": 0.0, "original": 0.9708044403440373, "choices": -2.903395732269873, "produce": 0.0, "drab": -0.9601797565548644, "rating": 2.854885271271688, "downgrade": 0.9961905895657868, "among": 2.7686378381595786, "classiest": 0.0, "brands": 0.007529537811374661, "expansive": 0.0, "upholstery": 0.0, "frayed": 0.987530133031755, "bathtub": 0.9705961132109163, "produced": 0.9953275200142853, "trickle": -0.01800541650546115, "pulled": 1.8169697330436594, "lists": 0.0, "displays": 0.0, "snacks": 0.08214041248772358, "plastic": 0.9975893574595994, "pen": 0.9810124698669682, "message": 0.0, "none": -0.9876491771078242, "reviewers": 0.9784530222314812, "remarked": 0.0, "blame": 0.9941668402726109, "instance": 0.0, "series": 0.0, "strange": 0.04734978125651022, "configurations": 0.0, "sit": 6.872950209815184, "cubby": 0.0, "legs": -0.9481563048718789, "tall": -0.998660754144222, "deserve": -0.9972619862504092, "compete": 0.0, "profile": -0.9795244189161036, "ideas": 0.0, "niftyc": 0.0, "reasons": -0.9850599684533199, "pure": -1.9722329692568674, "hypoallergenic": 0.0, "suffer": 0.9784530222314812, "extreme": 0.9810124698669682, "allergies": -1.7043540370822297, "hate": -0.9959227403946311, "pristine": -0.9727984286181959, "specially": 0.0, "environmental": -0.9879170262789798, "sensitivities": 0.0, "detected": 0.0, "distinct": -0.9003601083301093, "smells": -1.882533257938752, "mold": 0.06443260617243535, "add": 0.10160411892503199, "gross": 2.886878366715276, "factor": 0.0, "dust": -5.721585667093241, "lamps": 0.0, "fixtures": -0.6384333799589298, "dirt": -0.0036606053391268116, "comforter": 0.9991964524865331, "messy": 0.0, "hastily": 0.0, "threw": -0.9959227403946311, "politely": 0.0, "practically": -0.979554179935121, "match": -0.8295288830689562, "grudgingly": -0.9935418588732479, "typing": -0.9816672122853487, "touts": -1.9477396506056368, "promise": 1.8423261212463915, "garish": -0.9196750096723312, "premier": -0.9938394690634207, "held": -3.7906014701943396, "recieved": 0.9815779292282968, "symbol": 0.0, "discover": 2.897651855599536, "apologize": -0.023302877890538972, "receipt": 0.0, "indescrpencies": 0.0, "unavailable": 0.0, "recieve": 0.0, "refund": -2.6827772982946936, "difference": 5.676408440224994, "u": 0.0, "committed": 0.0, "blunder": 0.0, "retreat": 0.0, "expecting": -6.061783875479897, "respect": -1.924168923543942, "professionalism": 0.0, "contemporary": -0.7818219695842386, "deliver": 1.1304127853337698, "empty": 0.0380048212850808, "returned": 12.592779976786405, "picked": 0.054373381744590936, "ta": 0.0, "signing": 0.9821433885896254, "preferred": 1.8661349364602244, "newspapers": 0.0, "perks": -0.9394363262998126, "woken": 0.9208952114520401, "juice": 0.004434391833576382, "tribune": 0.0, "sides": 0.0, "plasma": 1.8247671200261897, "soaking": 0.994375167405732, "mineral": 0.0, "salts": 0.0, "twice": -1.809261629118181, "blueberry": 0.0, "muffins": -0.9877979822029106, "prepared": -4.5689711615725725, "perfectly": -3.709502693372221, "accomodating": 1.730246123627273, "melissa": 0.0, "curtis": 0.0, "maps": 0.8627124192732359, "machines": 7.549715782268385, "treadmill": 0.962382071962144, "lcd": 1.9557156037022707, "plasmas": 0.0, "lemon": 0.0, "stickler": 0.0, "sparkling": -0.9784827832504985, "wonderfully": -0.15490610398500046, "flushed": -0.005565310556233445, "maintenance": 2.8368798547662273, "fixed": 1.0244635576322134, "mess": 0.993452575816196, "covered": 3.8804499866075415, "grease": 2.949912204993899, "guestroom": -2.4470700276777477, "tools": 0.993452575816196, "fortune": -0.9741079134549567, "luxirious": -0.9741079134549567, "overlooks": 0.017737567334305527, "campus": -0.9741079134549567, "conveniently": -0.9793458528019999, "theatre": -1.9575012648433083, "myriad": -0.9741079134549567, "attractions": -3.8436356060831525, "sears": 0.9932442486830749, "include": -4.70753846611708, "wireless": -4.309544358798846, "inch": -1.8503913574000774, "televisions": -0.9741079134549567, "serenity": -1.9540489866373025, "direct": -0.994375167405732, "dial": -2.9649117585786136, "phones": 0.9478884557007232, "hairdryer": 0.9980060117258415, "damp": -1.8699741079134549, "dry": -0.9049730662777894, "usd": 1.954614445998631, "airlines": 0.0, "confirmed": 3.840332132972233, "eventually": 0.9106871819291092, "persisted": 0.9732746049224725, "babies": 0.9888991399065504, "strollers": 0.9732746049224725, "arrangements": 0.9732746049224725, "fit": -3.9566977173298414, "appointment": 1.946549209844945, "shopper": 0.9556263206452189, "bloomingdales": 2.9402696348322968, "forms": 0.9732746049224725, "advance": 2.9749412219874407, "advised": 1.946549209844945, "applications": 0.9732746049224725, "complaining": 0.05038540519627392, "disappointments": 0.9997321508288444, "send": 1.9361328531888933, "compensate": 2.8886937888753312, "thanks": 1.1460075592988304, "fluffy": -1.8962828487247403, "valuables": 0.0, "anniversary": -3.8206600994018034, "cabs": 1.1019612511532395, "dec": 0.0, "chriskindl": 0.0, "festival": 0.0, "strudel": 0.0, "vacations": -0.9868753906133746, "near": -5.663045742686229, "easily": -1.709591976429273, "accessible": 0.05654593613285319, "maid": -0.07755721555906074, "x": 0.7940537484003453, "daily": -0.9500610100889855, "turndown": 0.06172435344186185, "greeting": 1.7803636796523912, "cookies": 0.9144965923633225, "chocolates": 0.0, "pushed": 1.0194934674563256, "button": 0.9877086991458588, "conplaint": 0.0, "congierge": 0.0, "shouuld": 0.0, "appointed": 9.353203773697212, "carried": -1.9870837177464957, "wifes": 0.0, "swim": 3.3259426802773726, "sunny": 0.0, "tvs": 0.0, "couch": -2.714085890300884, "aspects": -0.004553435909645546, "unbeatable": 1.810600874973959, "hesitate": 2.9211035385851614, "formula": 0.0, "welcomed": 0.8732775810243742, "opposed": -0.9775006696229279, "nuisance": 0.0, "cornered": 0.0, "market": 0.9730662777893515, "delux": 0.0, "tranquility": 0.9574119817862563, "luxorious": 0.0, "themed": 0.0, "suits": -0.0158031010981816, "height": 0.0, "becuase": 0.0, "yoga": -1.941013660307729, "shoes": -0.9451802029701497, "shined": 0.0, "shoeshine": 0.0, "alternative": -0.8758667896788785, "ordinary": -2.776137614951936, "variety": -3.7197702449331866, "memorabilia": 0.10336001904705217, "often": 2.014523377280438, "talented": -0.855778101842207, "artists": -0.855778101842207, "singers": -0.855778101842207, "dancers": -0.855778101842207, "actors": -0.855778101842207, "deals": 0.9800601172584149, "penthouse": 0.0, "everywhere": -1.8704502842177315, "yr": 0.0, "olds": 0.0, "winter": 0.8297669712210947, "helpfull": 0.0, "wasnt": 1.9312520460700575, "crim": 0.0, "chosen": 0.990595517990536, "whichworked": 0.977203059432755, "wondeful": 0.977203059432755, "sat": 0.09339007767625963, "black": 2.808100949376507, "soap": -3.8340823189786017, "holder": 1.9758935745959942, "cracks": 0.977203059432755, "tile": 3.1270497901848158, "overhang": 0.977203059432755, "completely": -2.7419719651200856, "needless": -3.0449688997351267, "oh": 2.9000029761019017, "color": 0.04404630814559091, "copies": 0.977203059432755, "printer": 0.977203059432755, "man": 2.703967143835005, "drive": 3.9223535013838875, "printed": -0.051248474747775365, "presentation": 0.931519895241213, "booklet": 0.0, "therefore": 0.001190440760691646, "england": 0.0, "excellently": 0.0, "charm": 2.871075265617095, "faded": 0.9991964524865331, "edges": 0.0, "appalling": 0.0, "foyer": 0.0, "earlier": -2.000922591589536, "final": 0.7667926549805065, "occur": 0.0, "touches": 2.488527127168834, "cannot": -1.7901252938900627, "rainbow": 0.0, "enormous": 2.883485610547305, "gowns": 0.0, "consequence": 0.0, "ballroom": -0.9777982798131009, "ground": -1.0257135204309396, "throwback": 0.0, "upper": 0.943573107943216, "advice": 0.9898217314960864, "definitly": 0.0, "advertised": -1.735870956221541, "twin": -0.00979137525668879, "brilliant": 0.0, "quicker": 0.0, "opposite": -1.990387190857415, "grabbing": 0.0, "muffin": 0.020832713312103807, "croissant": 0.0, "bagel": 0.0, "kitty": -1.8465224249278296, "sheas": -1.8465224249278296, "irish": 0.09270557423886194, "mind": 3.9206273622808845, "total": 1.8338739918454807, "exotic": 0.0, "venues": 0.0, "drooling": 0.0, "picture": 0.9240796404868903, "tour": 2.943364780810095, "sooner": 0.0, "travelers": 1.902681467813458, "maintained": -3.84289158060772, "properties": 4.0389571738936345, "robes": 1.8386655159072647, "hypo": -2.7806612898425644, "allergenic": -2.7726853367459303, "foam": 0.9050921103538585, "feathers": 0.9050921103538585, "wet": 0.9516978661349365, "midst": 0.0, "miracle": 0.0, "doorstep": 0.0, "sensitive": 0.925389125323651, "skin": 0.9748816999494063, "recommending": -0.9777982798131009, "raved": 1.920180946995625, "bone": 0.0, "ribeye": -0.9298532781762447, "carrot": 0.0, "soup": 1.9916073926371238, "erie": 0.0, "silver": 0.0, "bass": 0.0, "extensive": 1.9245855778101841, "wines": 0.0, "guidance": 0.0, "lastly": -0.05642689205678402, "highlight": 0.9331865123061813, "visitors": -0.9966072438320288, "recommendation": -0.9702092199636916, "eve": 0.994375167405732, "brief": 0.9178893485312937, "prevent": 0.0, "advising": 0.0, "shoddy": 0.0, "ceiling": 1.9595845361745186, "fist": 0.0, "wires": 0.0, "exposed": 0.0, "towel": 1.9906550400285705, "racks": 0.0, "touched": -0.0008333085324841523, "mechanism": 0.0, "gentle": 0.0, "adhering": 0.0, "noted": 2.9625011160382133, "gift": 5.283354662063629, "upset": 1.9721734472188328, "wrote": 0.9800303562393976, "letter": 0.010029463408827119, "speak": -3.0322609446147437, "receive": -2.7608702121960658, "adequate": -3.689175917383411, "exceptional": 2.731853218654207, "single": -1.8534865033778756, "thorugh": 0.9666378976816166, "websight": 0.9666378976816166, "drag": -0.012886521234487068, "attractiion": 0.9666378976816166, "overhauled": 0.9666378976816166, "currently": 1.0140174399571442, "major": 5.005565310556234, "projections": 0.9666378976816166, "finish": 1.9432159757150085, "tried": 6.595547751555014, "circumstances": 1.9084551055028125, "lobbie": 0.9666378976816166, "unfinished": 0.9666378976816166, "drywall": 0.9666378976816166, "guys": 1.9377101871968097, "limit": 0.9666378976816166, "deceiving": -0.9786911103836196, "mine": -3.096991160977352, "grey": 0.9800898782774322, "des": -3.869944346894438, "architect": 0.0, "awful": -4.931728222374334, "glass": -2.912919258355406, "infrequently": 0.0, "scum": 0.9628582482664206, "emergency": 1.0735394779917264, "red": 1.9148834856105472, "exited": 0.9628582482664206, "employee": 0.8580101782685039, "child": 0.9447337876848904, "metal": 0.9997023898098271, "outdated": 3.608702121960656, "mouth": -2.0150590756227493, "bleeding": 0.0, "piece": -1.9440195232284754, "pennisula": 0.0, "ritz": 0.9946430165768876, "primehouse": 0.7295318591708579, "disappoitment": 0.0, "overflowed": 0.0, "drain": 1.8405106990863367, "showering": -0.9456563792744264, "drawer": 0.0, "descript": 0.0, "terribly": 0.0, "exceptionally": -0.1237463170738966, "pda": -0.9875598940507723, "kiosk": -0.9875598940507723, "purification": -1.8397369125918872, "systems": -0.9875598940507723, "delightful": -0.9875598940507723, "docking": -4.707895598345288, "demand": -0.9269366983125502, "assisting": -0.14303145739710127, "award": -1.9845837921490432, "winning": -1.9845837921490432, "definetly": -2.8986637302461236, "trips": -1.8655694770988958, "luxuary": -1.8128031903812387, "anticipated": 0.04672479985714711, "coworker": -0.9504479033362102, "schicago": -0.982113627570608, "write": 1.9433945418291123, "clear": -1.964227255141216, "vacuumed": -0.982113627570608, "figuered": -0.982113627570608, "indicators": -0.982113627570608, "caps": -0.982113627570608, "drinking": -1.9092884140352966, "actual": -0.9922026130174697, "urine": -0.982113627570608, "kid": -0.8435165620070831, "remnants": -0.982113627570608, "lip": -0.982113627570608, "smudge": -0.982113627570608, "industry": -1.707657510193149, "warned": 0.011041338055415018, "lazy": -1.9793756138210172, "effort": -0.8706586113508527, "sanitary": -0.982113627570608, "proof": -0.982113627570608, "chambermaid": -0.982113627570608, "frankly": -0.9741674354929912, "disgusting": -1.020654147198, "cavernous": -0.982113627570608, "unwelcoming": -0.982113627570608, "echo": 0.7949168179518467, "created": -0.982113627570608, "migraine": -0.982113627570608, "inducing": -0.982113627570608, "din": -0.982113627570608, "rarely": -0.976905449242582, "eager": -1.1694294812654384, "skeeviness": -0.982113627570608, "accomodations": -0.8888723549894348, "favor": -2.8163745126633137, "august": -0.8247671200261897, "creating": -1.8550935984048094, "illusion": -1.8550935984048094, "nightclubs": -1.8550935984048094, "isnt": -1.7501860063688581, "begin": -0.8537543525490313, "til": 0.01788637242939198, "inside": -4.939674414451951, "smelled": -14.44332013928157, "ash": -0.97648879497634, "tray": 0.017678045296270945, "deactivated": -0.97648879497634, "detectors": -0.97648879497634, "somehow": 0.005089134251956787, "arriving": -1.8048867593226392, "knocking": -1.9232463319544062, "disturb": -0.9384542126722419, "sign": -3.044284396297729, "wakeup": -0.97648879497634, "terrible": -4.577839945239725, "assigned": -1.8736347132525817, "condescending": 1.0118151245498646, "sighed": -0.97648879497634, "demeanor": 0.8640219041099967, "uneventful": -0.97648879497634, "elected": -0.9418469688402131, "executive": -0.08258682777298294, "acommodations": -0.9788696764977233, "stops": 0.9832445462932651, "odd": -0.1359185738519687, "mix": -0.9788696764977233, "frustrating": -0.9788696764977233, "speaking": -0.9788696764977233, "joke": -0.9788696764977233, "stale": -5.996339394660874, "cup": 0.9897919704770691, "connection": -1.022380286301003, "angonizingly": -0.9788696764977233, "shot": -1.0308919377399481, "inappropriate": 0.0, "arguing": -0.8021189845540311, "comfortably": 2.8353025207583107, "records": 0.0, "company": 0.061277938156602485, "disgust": -0.9972619862504092, "fancypants": 0.0, "complementary": -0.9309841968989018, "rewards": 0.0, "unsatisfactory": 2.78235766792655, "wold": 0.0, "pick": -0.02999910716942948, "reputable": 0.0, "proven": 0.0, "track": -2.4113865658760156, "ticket": 0.0, "honeycomb": 0.0, "android": 0.0, "tablet": 0.0, "dual": 0.0, "core": 0.0, "processor": 0.0, "understand": 2.8862236242968957, "browse": 0.0, "bread": 1.9906550400285705, "fillings": 0.0, "sandwich": 0.0, "wished": -0.9935418588732479, "swims": 0.0, "exploring": 0.0, "wacker": 2.9666676587006338, "girlfriend": 1.1753816850688967, "min": 5.638463140977947, "separating": 0.9971429421743401, "sounds": 0.06571232999017887, "patrick": 0.9971429421743401, "bagpacks": -0.9996428677717925, "remembered": 1.930388976518556, "chance": -2.8318204815332875, "il": -0.9775601916609624, "noxious": -0.9775601916609624, "mouse": -0.9775601916609624, "critters": -0.9775601916609624, "lurking": -0.9775601916609624, "joined": 0.7940537484003453, "overheard": 0.7940537484003453, "sleepless": 2.7672093092467485, "facing": 5.684562959435731, "sirens": 0.7940537484003453, "malfunctioning": -0.17883396327490253, "dryer": -2.0893128180708906, "bathing": 0.7940537484003453, "unaware": -0.19118478616707837, "actions": 0.7940537484003453, "insistence": 0.7940537484003453, "tomorrow": 0.7940537484003453, "grandparents": 0.7940537484003453, "refused": -2.047945001636856, "exchange": -1.9840778548257492, "blood": -0.9861313651379423, "sheets": -7.752537126871224, "selected": -0.08428320585696854, "hrs": 2.9761614237671496, "comparing": 0.9920538079223833, "boutiques": 1.0541650546114698, "allegro": 0.9920538079223833, "assumed": 1.933246034344216, "comparable": 2.9223832624029047, "roses": 0.9920538079223833, "bought": 0.9753876372727002, "question": 3.848724740335109, "agent": 1.9554179935120979, "transferred": 4.717597690544924, "instantly": 0.018928008094997173, "stuffed": 0.021576738787536087, "students": 0.9920538079223833, "hassle": 0.9719651200857118, "searched": 0.9920538079223833, "uninspired": 1.9854468617005445, "scuffed": 0.9920538079223833, "shelves": 0.9920538079223833, "bowed": 0.9920538079223833, "loose": 0.9920538079223833, "movies": 0.045504598077438174, "dated": 6.711080027380137, "budget": 3.8235171572274633, "positioning": 0.9920538079223833, "reader": 1.9841076158447666, "admonished": 0.9920538079223833, "embarrassing": 0.9920538079223833, "standing": 1.976786405166513, "network": 0.9920538079223833, "easygoing": 0.9920538079223833, "handsomely": 0.9920538079223833, "president": 0.9920538079223833, "perfection": 0.0, "oversold": -0.9855063837385792, "accepted": -3.9334841224963544, "clogged": -0.9855063837385792, "repair": -3.665337341150561, "resolve": -0.024076664384988542, "commitments": -0.9855063837385792, "condition": -0.9913693044849856, "gripes": 0.9833040683312997, "lightbulb": 1.9664295705484955, "rationed": 1.9664295705484955, "bottle": 4.724502246956936, "refill": 0.06949197940537484, "shared": 2.95154906103985, "ole": -0.8316121544001667, "intended": -1.8044998660754143, "cases": 0.16707836076307253, "allergen": -0.8316121544001667, "sufferers": -0.8316121544001667, "sneeze": -0.8316121544001667, "setting": -3.6852474628731287, "scanning": -0.8316121544001667, "fuzzy": 0.1275259664890926, "interattive": -0.8316121544001667, "ethernet": -0.8316121544001667, "confusion": -0.8316121544001667, "intercommunicative": -0.8316121544001667, "qualities": -0.8316121544001667, "em": -0.8316121544001667, "vacuuming": 0.15591797863158835, "fluorescent": -0.8316121544001667, "bulbs": -0.8316121544001667, "dimmer": -0.8316121544001667, "gideon": -0.8316121544001667, "bible": -0.8316121544001667, "crib": -0.8316121544001667, "notes": -0.8316121544001667, "geez": -0.8316121544001667, "spur": 0.9287818814916222, "nite": 1.8575637629832444, "thru": 0.9287818814916222, "lucky": 0.10139579179191095, "parked": 0.9287818814916222, "selfpark": 0.9287818814916222, "buckwheat": 0.9287818814916222, "pan": 0.9287818814916222, "cakes": 0.9287818814916222, "benedict": 0.9287818814916222, "stunned": 0.9287818814916222, "centrally": 0.0020535103121930897, "exorbitant": -1.9597928633076396, "picking": -0.9799410731823458, "stepping": -0.9799410731823458, "weather": -4.759530966340288, "adler": -0.9799410731823458, "planetarium": -0.9799410731823458, "chi": 1.9025029016993542, "towns": 0.0, "coordinate": -0.9708937234010893, "discounted": 0.0, "admissions": 0.0, "earliest": 0.0, "convenience": 0.0, "leisure": 2.8143210023511207, "beautifully": -6.6194756108449155, "resort": 0.0, "naturally": -0.9520847593821612, "massive": 2.8480402368977114, "scope": 0.0, "memorable": -0.9298532781762447, "watching": -1.0582423142168387, "appalled": -0.06514687062885033, "spare": -2.8107496800690455, "lock": 0.07720008333085325, "function": -0.9318770274694206, "pieces": -0.9088122377310199, "beware": 0.07333115085860539, "thz": 0.9623523109431267, "equipment": 1.133001993988274, "state": 0.9325020088687836, "opened": 3.0366655754293026, "happens": 0.9692866283741556, "deep": -0.20579744650456833, "streets": 3.9169667569417577, "feet": 0.08975923335615012, "exists": 0.9623523109431267, "restuarant": 1.9203595131097289, "frquently": 0.9623523109431267, "overnight": 1.933246034344216, "partying": -0.027796791762149935, "whatever": 1.8299752983542157, "pricing": -0.030891937739948215, "moderate": 0.9623523109431267, "teh": 0.9623523109431267, "trigger": 0.0, "images": 0.0, "hip": -0.023719532156781048, "rockers": 0.0, "sorely": -0.9837802446355763, "alludes": 0.0, "musicians": 0.0, "parties": 0.9763102288622363, "hob": 0.0, "falls": -1.8371774649564, "puts": 1.9063123121335674, "kitchy": 0.0, "decorations": 0.0215172167495015, "romance": -2.984643314187078, "scale": -0.9827981310080057, "fiancee": -0.9827981310080057, "dealt": -1.0483021338650635, "perk": -1.9641677331031815, "hbo": -0.9827981310080057, "signal": -0.9827981310080057, "hope": -1.0614862652897235, "musical": -0.8147674176363798, "appreciation": 0.0, "supplied": 0.9730067557513169, "beforehand": 0.0, "environment": -1.8747061099372042, "lapdog": 0.0, "outing": -0.8623552870450284, "definite": -0.9727984286181959, "seasoned": 0.006696229278890509, "somewhat": 3.01241034493021, "savvy": 0.0, "delivers": 1.9763102288622363, "accounts": 0.0, "reviewing": 0.985684949852683, "outstanding": 0.09091991309782448, "bills": -0.9512812118686944, "evidently": 0.9715187048004523, "eye": -0.11321091634177555, "beholder": -0.9512812118686944, "trite": -0.9512812118686944, "modular": -0.9512812118686944, "latest": 0.04490937769709235, "catalogue": -0.9512812118686944, "hunk": -1.9025624237373888, "ugliest": -0.9512812118686944, "urban": -1.9405970060414868, "equal": -0.9512812118686944, "flavor": -1.92660932710336, "architectes": -3.869944346894438, "le": -0.9956548912234755, "cutesy": -0.9512812118686944, "french": -2.9500610100889855, "trendy": -0.8633671616916163, "outfittings": -0.9512812118686944, "competent": 0.9850897294723371, "offering": -5.712032379988691, "seasonal": -0.9512812118686944, "menus": -0.10208029522930866, "cuisine": -2.9215499538704206, "roots": -0.9512812118686944, "means": -1.1563643939168478, "portions": 0.04187375375732865, "questionable": -0.9512812118686944, "standby": -0.9512812118686944, "filet": -0.9512812118686944, "mignon": -0.9512812118686944, "reputation": -0.9512812118686944, "meat": -0.9512812118686944, "succulent": -0.9512812118686944, "steak": -5.717478646468855, "gem": 0.9730662777893515, "warmly": -2.9077408410463974, "travels": 1.860152971637749, "awesome": 3.929674712062141, "partner": -0.9893157941727925, "preferences": 0.009106871819291092, "easier": -1.9828576530460402, "layout": 0.891640129758043, "beagle": -0.9893157941727925, "betsy": -0.9893157941727925, "jet": -2.972084164161781, "pampered": -0.9893157941727925, "stress": -0.9893157941727925, "ownership": -0.9893157941727925, "personally": 0.970358025058778, "kit": -1.0114282313026397, "shuffle": -1.1777923276092974, "pre": 1.8633076396535817, "loaded": -0.9893157941727925, "playlist": -0.9893157941727925, "cards": 0.004851046099818458, "guidebook": -0.9893157941727925, "map": -0.05258772060355347, "important": -0.8421475551322877, "opportunity": -1.018808964018928, "materials": 2.871908574149579, "exception": 1.1059194666825392, "laundry": 1.0667837266748013, "deadline": 0.01732091306806345, "valets": -0.9236629862206482, "miserable": 1.0042558257194727, "directions": -3.765929585429005, "amazed": -1.9509538406595042, "happen": 2.935686437903634, "recognizing": 0.9968750930031844, "shortcomings": -0.001785661141037469, "sincere": 0.9968750930031844, "significant": 0.9968750930031844, "poster": 0.9968750930031844, "overcome": 0.9968750930031844, "built": 0.9968750930031844, "scouring": 0.0, "websites": 0.0, "led": 0.9784530222314812, "shown": -1.8628612243683225, "spiderwebs": 0.0, "corners": 0.9941668402726109, "pod": 0.0, "ensure": -0.021249367578345883, "checks": -0.09502693372221065, "unusally": 0.0, "inquire": 0.9946430165768876, "waiter": 1.303175500729145, "knowledge": 0.9941668402726109, "remodeled": -0.7890538972054403, "crappy": -1.8531591321686856, "tourists": 0.9730067557513169, "cushy": 0.9758042915389423, "towne": 0.0, "neighborhoods": 0.9159251212761526, "gibsons": 0.0, "condos": 0.0, "behind": -1.0311002648730692, "besides": -0.9968453319841671, "somebody": 0.0, "details": -0.8521770185411148, "usual": 1.9084551055028125, "bus": 2.938275646558138, "viewing": 0.982827892027023, "dearborn": 0.982827892027023, "rd": 2.9528287848575934, "history": 1.97824469509836, "nap": 1.9690783012410344, "heading": -0.9914585875420374, "afford": 0.982827892027023, "locations": 1.9691973453171037, "carrying": -1.8803607035504895, "neighbors": -2.8054522186839677, "till": 0.07342043391565727, "proximity": -0.9416088806880748, "aesthetics": 0.0, "reserve": 1.9543465968274754, "delighted": 0.0178268503913574, "aspect": 0.0011011577036397727, "conceivable": 0.0, "amenity": -0.9702092199636916, "wired": 0.0, "connections": 0.0, "enviable": 0.0, "lap": 0.0, "resorts": 0.0, "travelling": 0.9971727031933574, "join": 0.8736644742715991, "breathtakingly": 0.0, "cheapest": 0.971072289515193, "divine": 0.0, "bathrobes": -0.9298532781762447, "newsletter": 0.9821433885896254, "victor": 1.9642867771792507, "handicapped": 2.9815481682092795, "acessible": 0.9821433885896254, "rooftop": 1.9698520877354841, "patio": 0.9821433885896254, "heaters": 0.9821433885896254, "groupings": 0.9821433885896254, "sofas": 0.9821433885896254, "pedro": 0.9821433885896254, "quentin": 0.9821433885896254, "bellmen": 1.9681557096514986, "christopher": 1.9758638135769768, "shook": 0.9821433885896254, "loyal": 0.0, "sad": 1.0584804023689771, "lodging": -1.9737507812267492, "deteriorates": 0.0, "triple": 0.0, "decades": 1.9952679979762507, "cooling": 0.9991071694294813, "downhill": -0.9702985030207434, "skyrocketed": 0.0, "minimum": 0.0, "structure": 0.0, "spitting": 0.0, "romantic": -0.11993690663968334, "footprints": -0.9702985030207434, "boys": 1.75027528942591, "sully": 1.75027528942591, "lousy": 2.73884705812327, "compared": 1.6396535817386386, "sf": 1.75027528942591, "bedbug": -2.7258712538317313, "drenched": 0.0, "concept": 0.0, "leaks": 0.0, "foul": 0.0, "scent": 0.025148061069611025, "reflected": 0.0, "incorrect": 0.9708044403440373, "utilize": 0.0, "corrected": 0.0, "unfriendly": -1.006636707240856, "unapologetic": 0.0, "adjusted": 0.0, "confrontation": 0.0, "mysterious": 0.0, "confident": -0.9869051516323919, "plagued": -0.9869051516323919, "announced": -0.9869051516323919, "holding": -1.0328561649950894, "matched": -0.060057736376893545, "bedspread": -0.9869051516323919, "threadbare": -2.9346448022380285, "operates": -0.9869051516323919, "scurrying": -1.982827892027023, "brought": -1.0365762923722508, "showed": -2.0130353263295735, "reached": -0.20091663938573256, "lukewarm": -1.990268146781346, "unsatisfying": -0.9869051516323919, "reply": -0.9869051516323919, "acknowledge": 0.00928543793339484, "spoil": 0.0, "tasting": 0.9411922264218326, "goldish": 0.0, "oliver": 0.0, "splurge": 0.0, "occasion": -1.9349424124282015, "pictured": 0.0, "vacuum": 0.0, "angels": 0.0, "kings": -0.03830243147525371, "cooked": -0.9816672122853487, "medium": 0.0, "staffed": 0.9819648224755215, "waited": 3.8443498705395673, "choosing": -0.07100979137525669, "fails": 2.899318472664504, "maintain": 1.9405374840034524, "standards": 2.864140948186066, "dublin": 0.983125502217196, "ireland": 0.983125502217196, "hongkong": 0.983125502217196, "pros": 0.983125502217196, "hallway": 0.970149697925657, "soaps": -0.9058956578673254, "replaced": 1.8882176125710544, "thoroughly": 1.0982708847950953, "hairballs": 0.0, "mirrors": 0.9986905151632391, "streaked": 0.0, "vaguest": 0.0, "answers": 0.9236927472396654, "questions": 0.9754173982917175, "starbucks": -0.9955060861283891, "studio": 0.04333204368917592, "payment": -0.8725930775869766, "nightmare": -0.9286628374155531, "listed": -0.8725930775869766, "oversized": -0.8725930775869766, "square": -0.8725930775869766, "sons": 0.11493705544477843, "oldest": -0.8725930775869766, "bugs": 0.6071247879527395, "moving": 0.1237760780929139, "umcomfortable": -0.8725930775869766, "drake": 2.8557185798041727, "westin": 0.0, "gene": 0.0, "stephanie": 0.0, "bice": 0.0, "runs": 0.0, "lift": -0.890628255111455, "positives": 1.948483676081069, "real": 2.69578286360525, "usage": 1.9616380464867118, "lifts": 0.9893455551918098, "seattle": 1.9303294544805214, "dana": 0.0, "secured": 0.985684949852683, "beat": -0.8042617779232761, "substantial": 0.9865182583851672, "chgo": 0.0, "avg": 0.0, "mo": 0.0, "royalty": -1.834618017320913, "sincerely": 0.0, "jobs": -0.020475581083896313, "stared": -0.9972619862504092, "mesmerizing": 0.0, "sophisticated": 0.844528436653671, "conveniences": 0.0, "everyday": -0.9709532454391239, "lives": -0.9549418172078212, "inexpensive": 0.9847325972441296, "priceless": 0.0, "greats": -0.9436028689622332, "cliche": -0.9436028689622332, "array": -0.9333650784202852, "lakeside": -0.9436028689622332, "seek": -0.001785661141037469, "casual": -0.9436028689622332, "college": 0.032915687033124016, "married": -2.8044105830183623, "moved": -4.6424213565072465, "changed": 0.165798636945329, "version": 0.0, "junior": -0.8951816910211006, "champagne": -2.008392607362876, "midnight": -0.9837802446355763, "supper": -0.9966370048510461, "cocktail": -0.037856016189994346, "memories": 0.9941668402726109, "annoying": 2.8487545013541262, "sensors": 0.9922621350555043, "ridicoulus": 0.9922621350555043, "thenightstand": 0.9922621350555043, "brand": 3.8045891491324664, "remarkable": 0.993363292759144, "possibly": 1.874587065861135, "interview": 1.850778250647302, "nervous": 1.850778250647302, "suggesting": 0.925389125323651, "entertain": 0.925389125323651, "exercise": -4.871700247016458, "facility": 5.6565280795214425, "advanced": 0.9789887205737925, "largely": 0.04913544239754769, "accidentally": 0.9789887205737925, "discarded": 0.9789887205737925, "cd": 4.85179012529389, "replacing": 0.9789887205737925, "exact": 0.9789887205737925, "purchased": 2.953572810333026, "freshly": 0.9789887205737925, "kitchen": 1.0221421981488645, "pair": -0.9657748281301152, "trinket": 0.9789887205737925, "hesitation": 1.9751793101395791, "attend": 2.7033124014166243, "trade": 3.76125710544329, "indoors": 0.9933037707211095, "prime": -0.0618731585369483, "estate": 0.0, "aged": 0.0, "gracefully": 0.0, "country": 1.868634862057677, "appearance": 0.8254813844826047, "iconic": 0.0, "accord": 0.0, "forcing": 0.9411922264218326, "patrons": 0.0, "nominal": 0.0, "rare": 0.0, "discourage": 0.0, "towners": 0.0, "destination": 0.9418172078211958, "meaning": 0.0, "admittedly": 0.0, "prosaic": 0.0, "weeks": -3.96648909258653, "typically": -0.9481563048718789, "fishy": -0.9481563048718789, "soiled": -0.9481563048718789, "panties": -0.9481563048718789, "bites": -0.04365941489836612, "bedbugs": -4.683610606827178, "emitting": 0.0, "hissing": 0.0, "sooo": 0.0, "damn": 0.0, "unplug": 0.0, "outlet": 0.0, "wayyy": 0.0, "buried": 0.0, "hearing": -1.9401505907562275, "realize": 0.0, "boiling": 0.0, "grrrrreat": 0.0, "scald": 0.0, "inconvenient": 0.9864884973661499, "hurry": 1.7174191244308206, "dance": 0.9953275200142853, "painfully": 0.9633641855897146, "box": 3.70578256599506, "fans": 0.999494062676706, "dump": 0.0, "dingy": -0.2244278444093926, "grout": 1.7174191244308206, "scrubbing": 1.7174191244308206, "roach": 1.7174191244308206, "supplies": 0.9026517067944406, "replenished": 2.5566500996994135, "requesting": 0.7223296925686735, "sugar": 1.7174191244308206, "stories": -0.1046099818457784, "heavenly": 0.0, "upbeat": 0.9800898782774322, "heartbeat": 0.0, "warning": -0.9509240796404869, "promoting": -0.992738311359781, "sexual": -0.992738311359781, "advances": -0.992738311359781, "ladies": 1.7896193565667688, "incident": 1.7261688640219042, "blindfolded": -0.992738311359781, "sworn": -0.992738311359781, "similar": -2.8337251867503945, "cat": -0.992738311359781, "pee": -0.992738311359781, "disgusted": -0.992738311359781, "eaten": -0.15350733609118777, "toast": -0.992738311359781, "powder": -1.9656260230350286, "sour": -0.992738311359781, "immaculately": -0.9319067884884379, "resources": -0.9319067884884379, "exemplary": -0.9319067884884379, "ribs": -0.9319067884884379, "youre": -0.9319067884884379, "mood": -1.9198833368054522, "unwind": -2.902621945775423, "sample": -0.9319067884884379, "tastings": -0.9319067884884379, "explore": -0.9319067884884379, "nightlife": 0.9550013392458557, "anyplace": 0.06175411446087914, "become": -1.974762655873337, "marriott": 2.807743817148299, "san": 0.010029463408827119, "francisco": -0.9775006696229279, "basically": -1.0009821136275705, "dug": -0.9775006696229279, "dimed": 0.003511800244040356, "freebies": -0.9775006696229279, "flawlessly": -0.9879170262789798, "luxuriously": -0.9879170262789798, "consulting": -0.9879170262789798, "credentials": -0.9879170262789798, "dovetailed": -0.9879170262789798, "mission": 1.8933067468230111, "guilt": -0.9879170262789798, "tripped": -0.8332490104461177, "socialize": -0.8332490104461177, "accommodated": -1.8314931103240975, "coleman": 0.0, "cake": 0.9525311746674207, "insanely": 0.0, "bf": 0.0, "nightspots": 0.0, "inlcluded": 0.0, "crowds": -2.8598256004285587, "workers": -2.836731049671141, "builiding": 0.0, "waved": 0.0, "seriously": 0.06532543674295407, "anonymous": 0.0, "consists": 1.9643760602363025, "mainly": 0.06464093330555638, "towers": 7.667123002291598, "sprawling": 0.0, "cruise": 0.0, "ditch": -0.9497336388797952, "rental": 2.817535192404988, "anyway": -2.018600636885807, "grab": -0.949406267670605, "patiently": 0.0, "tender": 0.0, "horrified": 0.0, "hairs": 0.0, "acted": -0.0931817505431386, "muttered": 0.0, "beverage": 0.8736644742715991, "involved": 2.7014374572185353, "clientele": 1.9682449927085504, "rambunctious": 0.0, "seeming": 0.0, "keeper": 0.0, "bare": 0.9847921192821643, "cups": -0.8646766465283772, "intercontinental": 0.9815779292282968, "cue": 0.0, "david": 0.7625368292610339, "dancer": 0.0, "sup": 0.0, "afraid": -1.9782744561173775, "fire": 0.0, "wtf": 0.0, "fucking": 0.0, "bent": -0.9972619862504092, "valentines": 0.9898217314960864, "subway": 4.781524359394066, "bartender": 1.9878575042409452, "clubs": -1.852504389750305, "folks": 1.0358322668968185, "bisquit": 0.9885717686973602, "moreover": 0.9885717686973602, "tickets": -0.008035475134668612, "unpleasant": -3.6258444689146154, "foot": 1.997321508288444, "locate": -0.9941966012916282, "code": 0.0, "scrap": 0.0, "process": 0.002767774768608077, "lengthy": -0.9876194160888069, "training": 1.8409571143715961, "cranky": 0.0, "starving": -0.9601797565548644, "selection": 2.0098806583137407, "smoked": -0.9727984286181959, "bothered": -0.0036010833010922294, "remainder": 0.9268474152554984, "awkwardly": 0.0, "interacted": 0.0, "uninterested": -0.08761643998690515, "crowd": -2.874854915032291, "excessive": 0.0, "quieted": -0.9901491027052767, "bringing": -1.9686318859557752, "earplugs": 0.0, "ill": 0.03612987708699146, "plane": 0.02142793369244963, "manchester": 0.9971727031933574, "sun": 3.897681616618553, "terrace": 1.0266956340585103, "grim": 0.9971727031933574, "sunbeds": 0.9971727031933574, "conditioning": -0.8517306032558555, "cheering": 0.9971727031933574, "pleasing": 3.8159578583970717, "chilled": -0.04160590458617303, "swift": 0.9574119817862563, "painless": -0.012797238177435196, "efficient": 0.9574119817862563, "salon": 0.9574119817862563, "fab": 1.9148239635725126, "rated": -0.026933722210648492, "voted": 0.9574119817862563, "residents": 0.9574119817862563, "deluxe": 0.9825898038748847, "lovelies": 0.9574119817862563, "slippers": 2.844201065444481, "interesting": 5.750572899616083, "crisps": 0.9574119817862563, "aid": -0.9661021993393054, "umbrella": 1.9571143715960835, "kiehls": 0.9574119817862563, "cosy": 0.9574119817862563, "chillout": 1.9148239635725126, "ensured": 0.9574119817862563, "snooze": 0.9574119817862563, "activities": 2.9224725454599567, "civilised": 0.9574119817862563, "background": 0.9574119817862563, "fussy": 2.710336001904705, "barman": 0.9574119817862563, "mixes": 0.9574119817862563, "mohito": 0.9574119817862563, "thoughtful": -0.021070801464242134, "cared": 0.14996577482813012, "g": 0.02148745573048421, "virtual": 0.9574119817862563, "tuck": 0.9574119817862563, "pcs": 0.9574119817862563, "webcams": 0.9574119817862563, "goodnight": 0.9574119817862563, "housekeepers": 0.0, "hopes": -2.9766078390524093, "entering": -1.958602422546948, "previous": 4.632272849022351, "visible": 0.0, "yellow": 0.0, "organized": -0.9708937234010893, "lingering": 0.0, "tenants": 0.0, "fix": -1.9228594387071813, "unreasonable": -1.9667271807386686, "glaring": 0.0, "errors": 0.0, "disappear": 0.0, "focus": -0.9966072438320288, "shallow": 0.0, "exterior": -0.07550370524686766, "fool": 0.0, "fooled": 0.0, "argued": 1.046397428647957, "beer": -1.935805481979703, "spray": -0.010713966846224814, "freshener": 0.9980357727448588, "helpless": 0.0, "magnetic": 0.0, "strip": 0.0, "magnet": 0.0, "mentality": 0.0, "aunts": 0.0, "overrated": 0.9984226659920836, "thereof": 1.9937501860063689, "explicitly": 0.9984226659920836, "stating": 0.9984226659920836, "inattentiveness": 0.9984226659920836, "fifteen": -1.9310734799559537, "timee": -0.949406267670605, "physical": 0.0, "fallen": 0.0, "competition": 0.0, "peeling": 2.961757090562781, "impossible": 1.0137793518050058, "blown": 0.0, "impact": -2.871075265617095, "renovation": 3.899229189607452, "peoples": 0.0, "example": 2.7138775631677627, "whilst": -1.8643790363382042, "weeknd": 0.0, "husbands": 0.0, "picky": -0.14713847802148747, "funny": 0.04443320139281569, "men": 3.090354453736496, "sports": 0.0, "celebrate": -2.1071099074432307, "affordable": -1.7084015356685813, "tight": 0.9985417100681527, "stetson": -0.9941966012916282, "steakhouse": 0.8242611827028957, "gets": -3.919615487634297, "thumbs": -2.9444064164757, "celebration": -0.9941966012916282, "retailer": 0.0, "ripped": 0.9455968572363918, "sniping": 0.0, "albiet": 0.0, "oldie": 0.0, "hype": -0.978839915478706, "yelp": 0.0, "confirm": 0.0, "awayers": 0.0, "sp": 0.0, "claims": -0.9727984286181959, "official": 0.0, "secondly": -0.990893128180709, "miniscule": 0.0, "comparison": 0.9784530222314812, "thirdly": 0.0, "bizarre": 0.0, "staffs": -0.8913722805868873, "courtesy": 1.7522395166810512, "snobbery": 0.0, "indicates": 0.999494062676706, "blues": 0.999494062676706, "buddy": 0.999494062676706, "legends": 0.999494062676706, "bucks": 2.1178238742894555, "crisp": -0.16904258801821376, "bath": 1.0591351447873576, "sightseeing": 3.8794381119609533, "hey": 0.977619713698997, "buck": -0.008422368381893397, "nightly": 2.970238980982709, "bottled": 1.9773221035088242, "drunks": -0.9700306538495878, "stumbling": -0.9700306538495878, "threatened": 0.02148745573048421, "feels": -2.751287164072498, "grandmother": 0.0, "attic": 0.0, "wallpaper": 2.943573107943216, "outlets": 0.9685426028987233, "beaten": 0.9907145620666051, "path": 0.9907145620666051, "closest": 0.0, "via": 1.9651796077497694, "blue": 0.0, "transferring": 0.0, "health": -0.029344364751049075, "hundreds": 0.0, "travling": -0.9814291241332104, "stores": -0.9814291241332104, "spring": 0.9958036963185619, "jr": 0.0, "resembled": 0.0, "wide": 1.102110056248326, "sticks": 0.0, "whistled": 0.0, "wind": 0.0, "aother": 0.0, "considering": -1.9547037290556828, 